<?xml version="1.0"?>
<opencv_storage>
<cascade>
  <stageType>BOOST</stageType>
  <featureType>HAAR</featureType>
  <height>24</height>
  <width>24</width>
  <stageParams>
    <boostType>GAB</boostType>
    <minHitRate>9.9500000476837158e-01</minHitRate>
    <maxFalseAlarm>5.0000000000000000e-01</maxFalseAlarm>
    <weightTrimRate>9.4999998807907104e-01</weightTrimRate>
    <maxDepth>1</maxDepth>
    <maxWeakCount>100</maxWeakCount></stageParams>
  <featureParams>
    <maxCatCount>0</maxCatCount>
    <featSize>1</featSize>
    <mode>BASIC</mode></featureParams>
  <stageNum>3</stageNum>
  <stages>
    <!-- stage 0 -->
    <_>
      <maxWeakCount>3</maxWeakCount>
      <stageThreshold>-1.2479103803634644e+00</stageThreshold>
      <weakClassifiers>
        <_>
          <internalNodes>
            0 -1 3 3.6438614130020142e-02</internalNodes>
          <leafValues>
            -9.8216056823730469e-01 1.</leafValues></_>
        <_>
          <internalNodes>
            0 -1 5 -1.7686560750007629e-01</internalNodes>
          <leafValues>
            7.5399965047836304e-01 -9.4427019357681274e-01</leafValues></_>
        <_>
          <internalNodes>
            0 -1 4 1.1049753986299038e-02</internalNodes>
          <leafValues>
            -9.0787172317504883e-01 6.7852038145065308e-01</leafValues></_></weakClassifiers></_>
    <!-- stage 1 -->
    <_>
      <maxWeakCount>3</maxWeakCount>
      <stageThreshold>-1.7357766628265381e+00</stageThreshold>
      <weakClassifiers>
        <_>
          <internalNodes>
            0 -1 8 -1.0054487735033035e-02</internalNodes>
          <leafValues>
            5.0000000000000000e-01 -9.8214286565780640e-01</leafValues></_>
        <_>
          <internalNodes>
            0 -1 1 -1.8065992742776871e-02</internalNodes>
          <leafValues>
            4.8077937960624695e-01 -9.2164170742034912e-01</leafValues></_>
        <_>
          <internalNodes>
            0 -1 6 2.7999025769531727e-03</internalNodes>
          <leafValues>
            -9.4835352897644043e-01 1.6800789535045624e-01</leafValues></_></weakClassifiers></_>
    <!-- stage 2 -->
    <_>
      <maxWeakCount>3</maxWeakCount>
      <stageThreshold>-1.5209991931915283e+00</stageThreshold>
      <weakClassifiers>
        <_>
          <internalNodes>
            0 -1 0 -3.7365227937698364e-01</internalNodes>
          <leafValues>
            1. -9.8216056823730469e-01</leafValues></_>
        <_>
          <internalNodes>
            0 -1 2 -2.5934913754463196e-01</internalNodes>
          <leafValues>
            2.8122645616531372e-01 -9.5710766315460205e-01</leafValues></_>
        <_>
          <internalNodes>
            0 -1 7 -6.2896236777305603e-02</internalNodes>
          <leafValues>
            9.2056143283843994e-01 -8.2006514072418213e-01</leafValues></_></weakClassifiers></_></stages>
  <features>
    <_>
      <rects>
        <_>
          0 8 16 16 -1.</_>
        <_>
          0 16 16 8 2.</_></rects>
      <tilted>0</tilted></_>
    <_>
      <rects>
        <_>
          3 14 9 1 -1.</_>
        <_>
          6 14 3 1 3.</_></rects>
      <tilted>0</tilted></_>
    <_>
      <rects>
        <_>
          4 3 15 18 -1.</_>
        <_>
          4 9 15 6 3.</_></rects>
      <tilted>0</tilted></_>
    <_>
      <rects>
        <_>
          9 6 2 9 -1.</_>
        <_>
          9 9 2 3 3.</_></rects>
      <tilted>0</tilted></_>
    <_>
      <rects>
        <_>
          9 13 4 6 -1.</_>
        <_>
          9 13 2 3 2.</_>
        <_>
          11 16 2 3 2.</_></rects>
      <tilted>0</tilted></_>
    <_>
      <rects>
        <_>
          11 1 6 18 -1.</_>
        <_>
          11 7 6 6 3.</_></rects>
      <tilted>0</tilted></_>
    <_>
      <rects>
        <_>
          13 13 3 6 -1.</_>
        <_>
          14 13 1 6 3.</_></rects>
      <tilted>0</tilted></_>
    <_>
      <rects>
        <_>
          16 12 3 12 -1.</_>
        <_>
          16 16 3 4 3.</_></rects>
      <tilted>0</tilted></_>
    <_>
      <rects>
        <_>
          17 12 4 2 -1.</_>
        <_>
          17 12 2 1 2.</_>
        <_>
          19 13 2 1 2.</_></rects>
      <tilted>0</tilted></_></features></cascade>
</opencv_storage>
