<?xml version="1.0"?>
<opencv_storage>
<!-- Created using Computer Vision System Toolbox(tm) for MATLAB(R) -->
<!-- Version 8.6.0.267246 (R2015b) -->
<!-- Compatible with OpenCV 2.4 -->
<cascade>
  <stageType>BOOST</stageType>
  <featureType>HAAR</featureType>
  <height>32</height>
  <width>53</width>
  <stageParams>
    <boostType>GAB</boostType>
    <minHitRate>9.9500000476837158e-01</minHitRate>
    <maxFalseAlarm>5.0000000000000000e-01</maxFalseAlarm>
    <weightTrimRate>9.4999999999999996e-01</weightTrimRate>
    <maxDepth>1</maxDepth>
    <maxWeakCount>100</maxWeakCount></stageParams>
  <featureParams>
    <maxCatCount>0</maxCatCount>
    <featSize>1</featSize>
    <mode>BASIC</mode></featureParams>
  <stageNum>20</stageNum>
  <stages>
    <!-- stage 0 -->
    <_>
      <maxWeakCount>6</maxWeakCount>
      <stageThreshold>-1.1628630161285400e+00</stageThreshold>
      <weakClassifiers>
        <_>
          <internalNodes>
            0 -1 63 -1.7627957463264465e-01</internalNodes>
          <leafValues>
            3.2978722453117371e-01 -7.9506170749664307e-01</leafValues></_>
        <_>
          <internalNodes>
            0 -1 32 -1.4068719465285540e-03</internalNodes>
          <leafValues>
            4.3713170289993286e-01 -6.5721088647842407e-01</leafValues></_>
        <_>
          <internalNodes>
            0 -1 322 -4.3266201391816139e-03</internalNodes>
          <leafValues>
            4.6922191977500916e-01 -5.0346958637237549e-01</leafValues></_>
        <_>
          <internalNodes>
            0 -1 298 -5.1674759015440941e-04</internalNodes>
          <leafValues>
            5.8886080980300903e-01 -3.6676761507987976e-01</leafValues></_>
        <_>
          <internalNodes>
            0 -1 365 1.4681890606880188e-03</internalNodes>
          <leafValues>
            -3.6970582604408264e-01 6.0554921627044678e-01</leafValues></_>
        <_>
          <internalNodes>
            0 -1 239 -6.6964642610400915e-04</internalNodes>
          <leafValues>
            5.7372415065765381e-01 -2.9881286621093750e-01</leafValues></_></weakClassifiers></_>
    <!-- stage 1 -->
    <_>
      <maxWeakCount>8</maxWeakCount>
      <stageThreshold>-1.3153921365737915e+00</stageThreshold>
      <weakClassifiers>
        <_>
          <internalNodes>
            0 -1 38 -2.1112766861915588e-01</internalNodes>
          <leafValues>
            2.8252789378166199e-01 -7.2966510057449341e-01</leafValues></_>
        <_>
          <internalNodes>
            0 -1 103 -1.9284766167402267e-02</internalNodes>
          <leafValues>
            4.9967932701110840e-01 -4.9037358164787292e-01</leafValues></_>
        <_>
          <internalNodes>
            0 -1 342 1.0830165818333626e-02</internalNodes>
          <leafValues>
            -3.3761000633239746e-01 5.3841918706893921e-01</leafValues></_>
        <_>
          <internalNodes>
            0 -1 136 -1.0174082592129707e-02</internalNodes>
          <leafValues>
            6.1620330810546875e-01 -2.2615477442741394e-01</leafValues></_>
        <_>
          <internalNodes>
            0 -1 20 -2.2105045616626740e-02</internalNodes>
          <leafValues>
            6.6153514385223389e-01 -2.6222261786460876e-01</leafValues></_>
        <_>
          <internalNodes>
            0 -1 29 -1.9251413643360138e-02</internalNodes>
          <leafValues>
            4.0568283200263977e-01 -2.9444873332977295e-01</leafValues></_>
        <_>
          <internalNodes>
            0 -1 107 -7.6493984088301659e-03</internalNodes>
          <leafValues>
            5.2947902679443359e-01 -2.2073039412498474e-01</leafValues></_>
        <_>
          <internalNodes>
            0 -1 64 1.0587492026388645e-02</internalNodes>
          <leafValues>
            -2.3773136734962463e-01 5.4568147659301758e-01</leafValues></_></weakClassifiers></_>
    <!-- stage 2 -->
    <_>
      <maxWeakCount>11</maxWeakCount>
      <stageThreshold>-1.2860809564590454e+00</stageThreshold>
      <weakClassifiers>
        <_>
          <internalNodes>
            0 -1 158 -4.4441416859626770e-02</internalNodes>
          <leafValues>
            2.4056604504585266e-01 -5.8947366476058960e-01</leafValues></_>
        <_>
          <internalNodes>
            0 -1 110 -6.6828489303588867e-02</internalNodes>
          <leafValues>
            3.3699968457221985e-01 -5.3256851434707642e-01</leafValues></_>
        <_>
          <internalNodes>
            0 -1 373 4.3259914964437485e-03</internalNodes>
          <leafValues>
            -3.7041857838630676e-01 4.4921356439590454e-01</leafValues></_>
        <_>
          <internalNodes>
            0 -1 135 7.8556668013334274e-03</internalNodes>
          <leafValues>
            -3.1208831071853638e-01 4.1395321488380432e-01</leafValues></_>
        <_>
          <internalNodes>
            0 -1 68 2.5681499391794205e-02</internalNodes>
          <leafValues>
            -1.3075800240039825e-01 6.4418011903762817e-01</leafValues></_>
        <_>
          <internalNodes>
            0 -1 76 -3.1092283315956593e-03</internalNodes>
          <leafValues>
            3.7974748015403748e-01 -2.5727736949920654e-01</leafValues></_>
        <_>
          <internalNodes>
            0 -1 143 -6.0220127925276756e-03</internalNodes>
          <leafValues>
            4.1425558924674988e-01 -2.6323008537292480e-01</leafValues></_>
        <_>
          <internalNodes>
            0 -1 163 1.7373128794133663e-03</internalNodes>
          <leafValues>
            -1.6066026687622070e-01 5.1132059097290039e-01</leafValues></_>
        <_>
          <internalNodes>
            0 -1 274 -5.5613871663808823e-03</internalNodes>
          <leafValues>
            5.0973910093307495e-01 -1.8650089204311371e-01</leafValues></_>
        <_>
          <internalNodes>
            0 -1 309 -9.7546279430389404e-03</internalNodes>
          <leafValues>
            2.8909176588058472e-01 -3.6543899774551392e-01</leafValues></_>
        <_>
          <internalNodes>
            0 -1 232 -1.6508034896105528e-03</internalNodes>
          <leafValues>
            4.2991003394126892e-01 -2.6903524994850159e-01</leafValues></_></weakClassifiers></_>
    <!-- stage 3 -->
    <_>
      <maxWeakCount>14</maxWeakCount>
      <stageThreshold>-1.2255940437316895e+00</stageThreshold>
      <weakClassifiers>
        <_>
          <internalNodes>
            0 -1 19 -1.3732846826314926e-02</internalNodes>
          <leafValues>
            3.0487805604934692e-01 -5.3346079587936401e-01</leafValues></_>
        <_>
          <internalNodes>
            0 -1 3 -2.1810618042945862e-01</internalNodes>
          <leafValues>
            2.9548379778862000e-01 -4.0527495741844177e-01</leafValues></_>
        <_>
          <internalNodes>
            0 -1 123 1.4682367444038391e-02</internalNodes>
          <leafValues>
            -2.8935647010803223e-01 4.4228991866111755e-01</leafValues></_>
        <_>
          <internalNodes>
            0 -1 77 -3.4047551453113556e-02</internalNodes>
          <leafValues>
            3.7762299180030823e-01 -2.3914638161659241e-01</leafValues></_>
        <_>
          <internalNodes>
            0 -1 109 -3.7721097469329834e-02</internalNodes>
          <leafValues>
            2.6318195462226868e-01 -3.1233167648315430e-01</leafValues></_>
        <_>
          <internalNodes>
            0 -1 167 -2.7444357983767986e-03</internalNodes>
          <leafValues>
            2.6846882700920105e-01 -3.3490768074989319e-01</leafValues></_>
        <_>
          <internalNodes>
            0 -1 381 2.7478660922497511e-03</internalNodes>
          <leafValues>
            -2.2119407355785370e-01 4.2146924138069153e-01</leafValues></_>
        <_>
          <internalNodes>
            0 -1 237 -2.0474081393331289e-03</internalNodes>
          <leafValues>
            5.5650383234024048e-01 -1.6168281435966492e-01</leafValues></_>
        <_>
          <internalNodes>
            0 -1 236 8.7706377962604165e-04</internalNodes>
          <leafValues>
            -2.0013476908206940e-01 4.6271786093711853e-01</leafValues></_>
        <_>
          <internalNodes>
            0 -1 108 3.0001942068338394e-03</internalNodes>
          <leafValues>
            -1.5276390314102173e-01 4.3340659141540527e-01</leafValues></_>
        <_>
          <internalNodes>
            0 -1 170 -1.8710043281316757e-02</internalNodes>
          <leafValues>
            5.7849925756454468e-01 -1.2230035662651062e-01</leafValues></_>
        <_>
          <internalNodes>
            0 -1 346 -2.9141008853912354e-03</internalNodes>
          <leafValues>
            4.2367130517959595e-01 -1.5039873123168945e-01</leafValues></_>
        <_>
          <internalNodes>
            0 -1 277 -2.1391268819570541e-02</internalNodes>
          <leafValues>
            2.5318390130996704e-01 -2.9155647754669189e-01</leafValues></_>
        <_>
          <internalNodes>
            0 -1 2 -1.6766330227255821e-02</internalNodes>
          <leafValues>
            4.3145239353179932e-01 -1.9756804406642914e-01</leafValues></_></weakClassifiers></_>
    <!-- stage 4 -->
    <_>
      <maxWeakCount>18</maxWeakCount>
      <stageThreshold>-1.2082413434982300e+00</stageThreshold>
      <weakClassifiers>
        <_>
          <internalNodes>
            0 -1 364 9.5343906432390213e-03</internalNodes>
          <leafValues>
            -5.8215963840484619e-01 7.2796933352947235e-02</leafValues></_>
        <_>
          <internalNodes>
            0 -1 125 -2.6259854435920715e-02</internalNodes>
          <leafValues>
            4.1469481587409973e-01 -2.7680671215057373e-01</leafValues></_>
        <_>
          <internalNodes>
            0 -1 124 2.4630362167954445e-03</internalNodes>
          <leafValues>
            -2.9662778973579407e-01 3.5083892941474915e-01</leafValues></_>
        <_>
          <internalNodes>
            0 -1 91 -4.2691975831985474e-03</internalNodes>
          <leafValues>
            3.2842025160789490e-01 -2.8152602910995483e-01</leafValues></_>
        <_>
          <internalNodes>
            0 -1 245 -3.2565244473516941e-03</internalNodes>
          <leafValues>
            3.7931841611862183e-01 -2.0312148332595825e-01</leafValues></_>
        <_>
          <internalNodes>
            0 -1 138 -1.2233857996761799e-03</internalNodes>
          <leafValues>
            4.8648399114608765e-01 -1.3335195183753967e-01</leafValues></_>
        <_>
          <internalNodes>
            0 -1 303 -6.2585677951574326e-03</internalNodes>
          <leafValues>
            3.6975750327110291e-01 -1.9320303201675415e-01</leafValues></_>
        <_>
          <internalNodes>
            0 -1 144 2.8468107338994741e-03</internalNodes>
          <leafValues>
            -1.4079189300537109e-01 4.6780681610107422e-01</leafValues></_>
        <_>
          <internalNodes>
            0 -1 161 -4.5945132151246071e-03</internalNodes>
          <leafValues>
            3.0545371770858765e-01 -2.2789986431598663e-01</leafValues></_>
        <_>
          <internalNodes>
            0 -1 293 -6.7532248795032501e-04</internalNodes>
          <leafValues>
            3.9326292276382446e-01 -1.7420814931392670e-01</leafValues></_>
        <_>
          <internalNodes>
            0 -1 8 1.6692127101123333e-03</internalNodes>
          <leafValues>
            -1.8686313927173615e-01 3.9444425702095032e-01</leafValues></_>
        <_>
          <internalNodes>
            0 -1 157 -6.6652551293373108e-02</internalNodes>
          <leafValues>
            2.2112871706485748e-01 -3.1236129999160767e-01</leafValues></_>
        <_>
          <internalNodes>
            0 -1 223 -7.0897331461310387e-03</internalNodes>
          <leafValues>
            3.2973173260688782e-01 -2.3161269724369049e-01</leafValues></_>
        <_>
          <internalNodes>
            0 -1 228 9.8359510302543640e-03</internalNodes>
          <leafValues>
            -1.5115563571453094e-01 5.3769785165786743e-01</leafValues></_>
        <_>
          <internalNodes>
            0 -1 118 -1.4194946270436049e-03</internalNodes>
          <leafValues>
            5.0527161359786987e-01 -1.2792387604713440e-01</leafValues></_>
        <_>
          <internalNodes>
            0 -1 57 -1.3414837419986725e-02</internalNodes>
          <leafValues>
            3.4059238433837891e-01 -1.8908354640007019e-01</leafValues></_>
        <_>
          <internalNodes>
            0 -1 106 -3.2567575573921204e-02</internalNodes>
          <leafValues>
            4.3385267257690430e-01 -1.6657477617263794e-01</leafValues></_>
        <_>
          <internalNodes>
            0 -1 113 2.7498352574184537e-04</internalNodes>
          <leafValues>
            -2.2305119037628174e-01 3.2379812002182007e-01</leafValues></_></weakClassifiers></_>
    <!-- stage 5 -->
    <_>
      <maxWeakCount>20</maxWeakCount>
      <stageThreshold>-1.1808794736862183e+00</stageThreshold>
      <weakClassifiers>
        <_>
          <internalNodes>
            0 -1 23 -1.4255058020353317e-02</internalNodes>
          <leafValues>
            -4.0118869394063950e-02 -6.1483597755432129e-01</leafValues></_>
        <_>
          <internalNodes>
            0 -1 290 -8.6148858070373535e-02</internalNodes>
          <leafValues>
            2.0839340984821320e-01 -3.2908833026885986e-01</leafValues></_>
        <_>
          <internalNodes>
            0 -1 35 7.7310767956078053e-03</internalNodes>
          <leafValues>
            -2.3862664401531219e-01 3.1139856576919556e-01</leafValues></_>
        <_>
          <internalNodes>
            0 -1 88 1.7170596867799759e-02</internalNodes>
          <leafValues>
            -2.1124695241451263e-01 2.9214406013488770e-01</leafValues></_>
        <_>
          <internalNodes>
            0 -1 154 -2.3997457174118608e-04</internalNodes>
          <leafValues>
            -5.9424757957458496e-01 1.1968591064214706e-01</leafValues></_>
        <_>
          <internalNodes>
            0 -1 315 -3.6024525761604309e-03</internalNodes>
          <leafValues>
            3.8880088925361633e-01 -1.5274445712566376e-01</leafValues></_>
        <_>
          <internalNodes>
            0 -1 283 2.1356963552534580e-03</internalNodes>
          <leafValues>
            -1.6816006600856781e-01 3.3312794566154480e-01</leafValues></_>
        <_>
          <internalNodes>
            0 -1 153 2.5023729540407658e-04</internalNodes>
          <leafValues>
            7.0972606539726257e-02 -7.9105424880981445e-01</leafValues></_>
        <_>
          <internalNodes>
            0 -1 12 -5.4355887696146965e-03</internalNodes>
          <leafValues>
            3.2612535357475281e-01 -1.8112646043300629e-01</leafValues></_>
        <_>
          <internalNodes>
            0 -1 169 9.9713969975709915e-03</internalNodes>
          <leafValues>
            -1.2870736420154572e-01 5.4220587015151978e-01</leafValues></_>
        <_>
          <internalNodes>
            0 -1 233 1.5006337314844131e-02</internalNodes>
          <leafValues>
            -1.2325394153594971e-01 4.5050960779190063e-01</leafValues></_>
        <_>
          <internalNodes>
            0 -1 260 -3.1362753361463547e-04</internalNodes>
          <leafValues>
            -7.0980739593505859e-01 9.9000208079814911e-02</leafValues></_>
        <_>
          <internalNodes>
            0 -1 222 -1.1362859979271889e-02</internalNodes>
          <leafValues>
            4.6570831537246704e-01 -1.2549473345279694e-01</leafValues></_>
        <_>
          <internalNodes>
            0 -1 155 -3.0969548970460892e-03</internalNodes>
          <leafValues>
            -4.1233795881271362e-01 1.5020951628684998e-01</leafValues></_>
        <_>
          <internalNodes>
            0 -1 190 -1.1510506272315979e-02</internalNodes>
          <leafValues>
            4.5449209213256836e-01 -1.4456027746200562e-01</leafValues></_>
        <_>
          <internalNodes>
            0 -1 140 -8.6164858657866716e-04</internalNodes>
          <leafValues>
            3.5634157061576843e-01 -1.5681971609592438e-01</leafValues></_>
        <_>
          <internalNodes>
            0 -1 47 -3.8739183219149709e-04</internalNodes>
          <leafValues>
            -6.7574429512023926e-01 8.5431449115276337e-02</leafValues></_>
        <_>
          <internalNodes>
            0 -1 382 -9.6837547607719898e-04</internalNodes>
          <leafValues>
            4.2813193798065186e-01 -1.5041095018386841e-01</leafValues></_>
        <_>
          <internalNodes>
            0 -1 24 -2.0605290308594704e-02</internalNodes>
          <leafValues>
            1.9475306570529938e-01 -3.0124241113662720e-01</leafValues></_>
        <_>
          <internalNodes>
            0 -1 261 -6.6349998814985156e-04</internalNodes>
          <leafValues>
            2.9350087046623230e-01 -1.9536016881465912e-01</leafValues></_></weakClassifiers></_>
    <!-- stage 6 -->
    <_>
      <maxWeakCount>9</maxWeakCount>
      <stageThreshold>-1.4019522666931152e+00</stageThreshold>
      <weakClassifiers>
        <_>
          <internalNodes>
            0 -1 333 2.2325795143842697e-02</internalNodes>
          <leafValues>
            -5.7950907945632935e-01 1.9450801610946655e-01</leafValues></_>
        <_>
          <internalNodes>
            0 -1 6 -4.9054425209760666e-02</internalNodes>
          <leafValues>
            3.7482088804244995e-01 -3.6161363124847412e-01</leafValues></_>
        <_>
          <internalNodes>
            0 -1 359 -3.4248956944793463e-04</internalNodes>
          <leafValues>
            -7.5313341617584229e-01 1.5988950431346893e-01</leafValues></_>
        <_>
          <internalNodes>
            0 -1 359 4.2034382931888103e-04</internalNodes>
          <leafValues>
            1.9275364279747009e-01 -7.1984553337097168e-01</leafValues></_>
        <_>
          <internalNodes>
            0 -1 192 -4.3711386620998383e-02</internalNodes>
          <leafValues>
            4.0030148625373840e-01 -2.4698264896869659e-01</leafValues></_>
        <_>
          <internalNodes>
            0 -1 370 -1.4730442489963025e-04</internalNodes>
          <leafValues>
            -5.6753098964691162e-01 1.4551585912704468e-01</leafValues></_>
        <_>
          <internalNodes>
            0 -1 171 -2.1836002997588366e-04</internalNodes>
          <leafValues>
            -6.6749477386474609e-01 1.1003421247005463e-01</leafValues></_>
        <_>
          <internalNodes>
            0 -1 4 -3.3233114518225193e-03</internalNodes>
          <leafValues>
            3.5898396372795105e-01 -2.1707761287689209e-01</leafValues></_>
        <_>
          <internalNodes>
            0 -1 343 -3.2110110623762012e-04</internalNodes>
          <leafValues>
            -6.6593277454376221e-01 1.3015852868556976e-01</leafValues></_></weakClassifiers></_>
    <!-- stage 7 -->
    <_>
      <maxWeakCount>8</maxWeakCount>
      <stageThreshold>-1.2862789630889893e+00</stageThreshold>
      <weakClassifiers>
        <_>
          <internalNodes>
            0 -1 79 -3.0634427070617676e-01</internalNodes>
          <leafValues>
            3.6138615012168884e-01 -6.2268042564392090e-01</leafValues></_>
        <_>
          <internalNodes>
            0 -1 387 -1.7061115067917854e-04</internalNodes>
          <leafValues>
            -8.1401395797729492e-01 1.2890772521495819e-01</leafValues></_>
        <_>
          <internalNodes>
            0 -1 369 -7.3741888627409935e-04</internalNodes>
          <leafValues>
            -7.8833365440368652e-01 1.4427007734775543e-01</leafValues></_>
        <_>
          <internalNodes>
            0 -1 269 -1.7009492148645222e-04</internalNodes>
          <leafValues>
            -7.3990523815155029e-01 1.4157052338123322e-01</leafValues></_>
        <_>
          <internalNodes>
            0 -1 60 3.5289977677166462e-04</internalNodes>
          <leafValues>
            1.6972564160823822e-01 -7.0890641212463379e-01</leafValues></_>
        <_>
          <internalNodes>
            0 -1 348 -3.5372941056266427e-04</internalNodes>
          <leafValues>
            -5.6660622358322144e-01 1.9102443754673004e-01</leafValues></_>
        <_>
          <internalNodes>
            0 -1 185 -1.6092204896267503e-04</internalNodes>
          <leafValues>
            -6.2911993265151978e-01 1.5074296295642853e-01</leafValues></_>
        <_>
          <internalNodes>
            0 -1 231 -4.7730232472531497e-04</internalNodes>
          <leafValues>
            -4.9242031574249268e-01 1.7026789486408234e-01</leafValues></_></weakClassifiers></_>
    <!-- stage 8 -->
    <_>
      <maxWeakCount>20</maxWeakCount>
      <stageThreshold>-1.0909439325332642e+00</stageThreshold>
      <weakClassifiers>
        <_>
          <internalNodes>
            0 -1 26 -1.2640763074159622e-02</internalNodes>
          <leafValues>
            -1.0309278033673763e-02 -5.7070708274841309e-01</leafValues></_>
        <_>
          <internalNodes>
            0 -1 351 8.4111951291561127e-03</internalNodes>
          <leafValues>
            -3.4201094508171082e-01 2.0822644233703613e-01</leafValues></_>
        <_>
          <internalNodes>
            0 -1 36 3.8034445606172085e-03</internalNodes>
          <leafValues>
            7.5176790356636047e-02 -7.0569986104965210e-01</leafValues></_>
        <_>
          <internalNodes>
            0 -1 97 -2.0351253449916840e-02</internalNodes>
          <leafValues>
            2.0072551071643829e-01 -2.5268787145614624e-01</leafValues></_>
        <_>
          <internalNodes>
            0 -1 129 2.0255544222891331e-03</internalNodes>
          <leafValues>
            -1.6708207130432129e-01 3.1928840279579163e-01</leafValues></_>
        <_>
          <internalNodes>
            0 -1 191 -9.6327695064246655e-04</internalNodes>
          <leafValues>
            3.7375080585479736e-01 -1.5820163488388062e-01</leafValues></_>
        <_>
          <internalNodes>
            0 -1 33 -6.3551939092576504e-03</internalNodes>
          <leafValues>
            1.7385526001453400e-01 -2.9823052883148193e-01</leafValues></_>
        <_>
          <internalNodes>
            0 -1 253 -2.0474482327699661e-02</internalNodes>
          <leafValues>
            3.1559255719184875e-01 -1.4796951413154602e-01</leafValues></_>
        <_>
          <internalNodes>
            0 -1 15 -3.1307476456277072e-04</internalNodes>
          <leafValues>
            3.4377452731132507e-01 -1.5383796393871307e-01</leafValues></_>
        <_>
          <internalNodes>
            0 -1 352 -2.1854613441973925e-03</internalNodes>
          <leafValues>
            -7.5505465269088745e-01 6.7238293588161469e-02</leafValues></_>
        <_>
          <internalNodes>
            0 -1 89 2.9927459545433521e-03</internalNodes>
          <leafValues>
            -2.0787794888019562e-01 2.4805781245231628e-01</leafValues></_>
        <_>
          <internalNodes>
            0 -1 187 -1.3951417058706284e-03</internalNodes>
          <leafValues>
            2.6073250174522400e-01 -1.9346760213375092e-01</leafValues></_>
        <_>
          <internalNodes>
            0 -1 248 3.0802111141383648e-03</internalNodes>
          <leafValues>
            8.6939580738544464e-02 -7.3911118507385254e-01</leafValues></_>
        <_>
          <internalNodes>
            0 -1 141 9.4713701400905848e-04</internalNodes>
          <leafValues>
            -1.7422075569629669e-01 3.2510986924171448e-01</leafValues></_>
        <_>
          <internalNodes>
            0 -1 115 5.3610438480973244e-03</internalNodes>
          <leafValues>
            -1.1659610271453857e-01 4.2416933178901672e-01</leafValues></_>
        <_>
          <internalNodes>
            0 -1 383 -3.1778676202520728e-04</internalNodes>
          <leafValues>
            -6.4164870977401733e-01 9.4696745276451111e-02</leafValues></_>
        <_>
          <internalNodes>
            0 -1 93 -1.5446401666849852e-03</internalNodes>
          <leafValues>
            3.7496113777160645e-01 -1.5804271399974823e-01</leafValues></_>
        <_>
          <internalNodes>
            0 -1 338 2.1558400476351380e-04</internalNodes>
          <leafValues>
            1.2059394270181656e-01 -4.4453379511833191e-01</leafValues></_>
        <_>
          <internalNodes>
            0 -1 304 -4.4170272303745151e-04</internalNodes>
          <leafValues>
            2.7084055542945862e-01 -1.8618659675121307e-01</leafValues></_>
        <_>
          <internalNodes>
            0 -1 173 2.2962084040045738e-03</internalNodes>
          <leafValues>
            -1.5006828308105469e-01 3.3684602379798889e-01</leafValues></_></weakClassifiers></_>
    <!-- stage 9 -->
    <_>
      <maxWeakCount>24</maxWeakCount>
      <stageThreshold>-1.0964571237564087e+00</stageThreshold>
      <weakClassifiers>
        <_>
          <internalNodes>
            0 -1 18 -1.0237996466457844e-02</internalNodes>
          <leafValues>
            1.6981132328510284e-01 -4.8484849929809570e-01</leafValues></_>
        <_>
          <internalNodes>
            0 -1 288 1.6348810866475105e-02</internalNodes>
          <leafValues>
            -2.9991957545280457e-01 2.7641683816909790e-01</leafValues></_>
        <_>
          <internalNodes>
            0 -1 307 -2.0492346957325935e-03</internalNodes>
          <leafValues>
            4.3156823515892029e-01 -1.1224476248025894e-01</leafValues></_>
        <_>
          <internalNodes>
            0 -1 217 -1.7978783696889877e-02</internalNodes>
          <leafValues>
            3.2621881365776062e-01 -1.4244428277015686e-01</leafValues></_>
        <_>
          <internalNodes>
            0 -1 56 3.4411668821121566e-06</internalNodes>
          <leafValues>
            -1.9309732317924500e-01 2.4934652447700500e-01</leafValues></_>
        <_>
          <internalNodes>
            0 -1 294 -1.8085949122905731e-02</internalNodes>
          <leafValues>
            2.6858663558959961e-01 -1.9090634584426880e-01</leafValues></_>
        <_>
          <internalNodes>
            0 -1 374 -2.3815628082957119e-05</internalNodes>
          <leafValues>
            2.7496314048767090e-01 -1.7202222347259521e-01</leafValues></_>
        <_>
          <internalNodes>
            0 -1 184 3.5252765519544482e-04</internalNodes>
          <leafValues>
            -2.6203435659408569e-01 1.9792626798152924e-01</leafValues></_>
        <_>
          <internalNodes>
            0 -1 178 -1.3727003242820501e-03</internalNodes>
          <leafValues>
            3.6183413863182068e-01 -1.4529204368591309e-01</leafValues></_>
        <_>
          <internalNodes>
            0 -1 305 3.1394512916449457e-05</internalNodes>
          <leafValues>
            -1.9039408862590790e-01 2.5143319368362427e-01</leafValues></_>
        <_>
          <internalNodes>
            0 -1 244 2.0837872289121151e-03</internalNodes>
          <leafValues>
            -1.1427444219589233e-01 4.1223305463790894e-01</leafValues></_>
        <_>
          <internalNodes>
            0 -1 262 -2.3969851434230804e-02</internalNodes>
          <leafValues>
            2.0080995559692383e-01 -2.5053027272224426e-01</leafValues></_>
        <_>
          <internalNodes>
            0 -1 82 3.6535418530547759e-06</internalNodes>
          <leafValues>
            -2.2928553819656372e-01 2.2467584908008575e-01</leafValues></_>
        <_>
          <internalNodes>
            0 -1 292 -3.1306698918342590e-02</internalNodes>
          <leafValues>
            2.4395456910133362e-01 -2.0172177255153656e-01</leafValues></_>
        <_>
          <internalNodes>
            0 -1 126 6.7296484485268593e-03</internalNodes>
          <leafValues>
            -1.3548749685287476e-01 3.9862945675849915e-01</leafValues></_>
        <_>
          <internalNodes>
            0 -1 67 1.7993718385696411e-02</internalNodes>
          <leafValues>
            -2.0602108538150787e-01 3.1670162081718445e-01</leafValues></_>
        <_>
          <internalNodes>
            0 -1 350 -3.6210841499269009e-03</internalNodes>
          <leafValues>
            3.7560138106346130e-01 -1.3367110490798950e-01</leafValues></_>
        <_>
          <internalNodes>
            0 -1 393 7.7235727076185867e-06</internalNodes>
          <leafValues>
            -2.2694739699363708e-01 2.2815670073032379e-01</leafValues></_>
        <_>
          <internalNodes>
            0 -1 314 7.9351116437464952e-04</internalNodes>
          <leafValues>
            -1.1451020091772079e-01 4.2020532488822937e-01</leafValues></_>
        <_>
          <internalNodes>
            0 -1 320 1.2372274795779958e-05</internalNodes>
          <leafValues>
            -2.5416335463523865e-01 2.1272923052310944e-01</leafValues></_>
        <_>
          <internalNodes>
            0 -1 281 1.3088580453768373e-03</internalNodes>
          <leafValues>
            -1.5831974148750305e-01 3.1152811646461487e-01</leafValues></_>
        <_>
          <internalNodes>
            0 -1 0 -2.3328867973759770e-04</internalNodes>
          <leafValues>
            -3.8357615470886230e-01 1.2697196006774902e-01</leafValues></_>
        <_>
          <internalNodes>
            0 -1 146 -1.1678922455757856e-03</internalNodes>
          <leafValues>
            4.7237253189086914e-01 -1.1262253671884537e-01</leafValues></_>
        <_>
          <internalNodes>
            0 -1 142 1.3462423812597990e-03</internalNodes>
          <leafValues>
            -1.2074697017669678e-01 4.1792577505111694e-01</leafValues></_></weakClassifiers></_>
    <!-- stage 10 -->
    <_>
      <maxWeakCount>25</maxWeakCount>
      <stageThreshold>-1.2474912405014038e+00</stageThreshold>
      <weakClassifiers>
        <_>
          <internalNodes>
            0 -1 21 -1.2439114972949028e-02</internalNodes>
          <leafValues>
            1.4441417157649994e-01 -5.0744783878326416e-01</leafValues></_>
        <_>
          <internalNodes>
            0 -1 296 -6.6802040673792362e-03</internalNodes>
          <leafValues>
            1.8937064707279205e-01 -3.1894704699516296e-01</leafValues></_>
        <_>
          <internalNodes>
            0 -1 204 3.6229544784873724e-03</internalNodes>
          <leafValues>
            -1.5515935420989990e-01 3.4168526530265808e-01</leafValues></_>
        <_>
          <internalNodes>
            0 -1 114 3.7946607917547226e-03</internalNodes>
          <leafValues>
            7.9866208136081696e-02 -5.8062022924423218e-01</leafValues></_>
        <_>
          <internalNodes>
            0 -1 5 1.7070811241865158e-02</internalNodes>
          <leafValues>
            8.3795994520187378e-02 -7.4475860595703125e-01</leafValues></_>
        <_>
          <internalNodes>
            0 -1 175 -2.0783513318747282e-03</internalNodes>
          <leafValues>
            3.6751827597618103e-01 -1.1859920620918274e-01</leafValues></_>
        <_>
          <internalNodes>
            0 -1 186 5.3925625979900360e-04</internalNodes>
          <leafValues>
            -1.7831458151340485e-01 3.0554568767547607e-01</leafValues></_>
        <_>
          <internalNodes>
            0 -1 42 -2.9789796099066734e-03</internalNodes>
          <leafValues>
            3.7924221158027649e-01 -1.3205601274967194e-01</leafValues></_>
        <_>
          <internalNodes>
            0 -1 166 -6.3550155609846115e-03</internalNodes>
          <leafValues>
            1.6540901362895966e-01 -2.9281583428382874e-01</leafValues></_>
        <_>
          <internalNodes>
            0 -1 117 -1.0184898972511292e-02</internalNodes>
          <leafValues>
            1.7986626923084259e-01 -2.9343777894973755e-01</leafValues></_>
        <_>
          <internalNodes>
            0 -1 240 9.4277941389009356e-04</internalNodes>
          <leafValues>
            -1.0386942327022552e-01 4.9505051970481873e-01</leafValues></_>
        <_>
          <internalNodes>
            0 -1 357 -5.6457174941897392e-03</internalNodes>
          <leafValues>
            3.9529845118522644e-01 -1.2272162735462189e-01</leafValues></_>
        <_>
          <internalNodes>
            0 -1 208 1.7065145075321198e-02</internalNodes>
          <leafValues>
            -9.0150147676467896e-02 5.5568021535873413e-01</leafValues></_>
        <_>
          <internalNodes>
            0 -1 386 -6.2118616187945008e-04</internalNodes>
          <leafValues>
            -4.7444668412208557e-01 1.0646919906139374e-01</leafValues></_>
        <_>
          <internalNodes>
            0 -1 177 -1.7736470326781273e-03</internalNodes>
          <leafValues>
            4.1831505298614502e-01 -1.1242301762104034e-01</leafValues></_>
        <_>
          <internalNodes>
            0 -1 194 -2.0204824395477772e-03</internalNodes>
          <leafValues>
            2.1631830930709839e-01 -2.0074431598186493e-01</leafValues></_>
        <_>
          <internalNodes>
            0 -1 368 4.3167674448341131e-04</internalNodes>
          <leafValues>
            -1.4536570012569427e-01 2.8855979442596436e-01</leafValues></_>
        <_>
          <internalNodes>
            0 -1 34 -8.9038017904385924e-04</internalNodes>
          <leafValues>
            1.7287465929985046e-01 -2.6835635304450989e-01</leafValues></_>
        <_>
          <internalNodes>
            0 -1 227 -5.8694835752248764e-04</internalNodes>
          <leafValues>
            3.5012617707252502e-01 -1.4012780785560608e-01</leafValues></_>
        <_>
          <internalNodes>
            0 -1 353 6.6399644128978252e-04</internalNodes>
          <leafValues>
            1.2761560082435608e-01 -3.8123717904090881e-01</leafValues></_>
        <_>
          <internalNodes>
            0 -1 347 -3.5685338843904901e-06</internalNodes>
          <leafValues>
            2.3218488693237305e-01 -2.0993019640445709e-01</leafValues></_>
        <_>
          <internalNodes>
            0 -1 182 2.6993860956281424e-04</internalNodes>
          <leafValues>
            1.0931097716093063e-01 -4.4034329056739807e-01</leafValues></_>
        <_>
          <internalNodes>
            0 -1 149 1.9665758009068668e-04</internalNodes>
          <leafValues>
            -1.7195107042789459e-01 2.7348899841308594e-01</leafValues></_>
        <_>
          <internalNodes>
            0 -1 254 1.2097030412405729e-03</internalNodes>
          <leafValues>
            -1.2686352431774139e-01 3.5378849506378174e-01</leafValues></_>
        <_>
          <internalNodes>
            0 -1 336 -3.6921380797139136e-06</internalNodes>
          <leafValues>
            2.4455244839191437e-01 -1.9481311738491058e-01</leafValues></_></weakClassifiers></_>
    <!-- stage 11 -->
    <_>
      <maxWeakCount>27</maxWeakCount>
      <stageThreshold>-1.1696555614471436e+00</stageThreshold>
      <weakClassifiers>
        <_>
          <internalNodes>
            0 -1 13 -1.6336310654878616e-02</internalNodes>
          <leafValues>
            2.1266968548297882e-01 -4.3798786401748657e-01</leafValues></_>
        <_>
          <internalNodes>
            0 -1 268 4.0560024790465832e-03</internalNodes>
          <leafValues>
            -2.6127979159355164e-01 1.8882131576538086e-01</leafValues></_>
        <_>
          <internalNodes>
            0 -1 61 8.5587184876203537e-03</internalNodes>
          <leafValues>
            7.6677091419696808e-02 -6.4154285192489624e-01</leafValues></_>
        <_>
          <internalNodes>
            0 -1 308 -8.3051813999190927e-04</internalNodes>
          <leafValues>
            3.3439674973487854e-01 -1.0621125996112823e-01</leafValues></_>
        <_>
          <internalNodes>
            0 -1 316 2.4576431605964899e-03</internalNodes>
          <leafValues>
            -1.7285595834255219e-01 2.7796012163162231e-01</leafValues></_>
        <_>
          <internalNodes>
            0 -1 355 -8.4406416863203049e-03</internalNodes>
          <leafValues>
            3.7025871872901917e-01 -1.1010566353797913e-01</leafValues></_>
        <_>
          <internalNodes>
            0 -1 319 6.4661965006962419e-04</internalNodes>
          <leafValues>
            -2.8686687350273132e-01 1.4607810974121094e-01</leafValues></_>
        <_>
          <internalNodes>
            0 -1 241 -3.3164131455123425e-03</internalNodes>
          <leafValues>
            3.4390538930892944e-01 -1.2996450066566467e-01</leafValues></_>
        <_>
          <internalNodes>
            0 -1 101 1.0360235348343849e-02</internalNodes>
          <leafValues>
            -1.5914167463779449e-01 3.5002985596656799e-01</leafValues></_>
        <_>
          <internalNodes>
            0 -1 371 1.2921358575113118e-05</internalNodes>
          <leafValues>
            1.5997847914695740e-01 -2.8367096185684204e-01</leafValues></_>
        <_>
          <internalNodes>
            0 -1 242 -3.3819847740232944e-03</internalNodes>
          <leafValues>
            -7.5662440061569214e-01 8.4488049149513245e-02</leafValues></_>
        <_>
          <internalNodes>
            0 -1 250 -1.9676485098898411e-03</internalNodes>
          <leafValues>
            4.2020100355148315e-01 -1.1901149153709412e-01</leafValues></_>
        <_>
          <internalNodes>
            0 -1 218 8.4675461053848267e-02</internalNodes>
          <leafValues>
            6.7512847483158112e-02 -6.1325526237487793e-01</leafValues></_>
        <_>
          <internalNodes>
            0 -1 14 -7.7407591743394732e-04</internalNodes>
          <leafValues>
            3.3559179306030273e-01 -1.2365495413541794e-01</leafValues></_>
        <_>
          <internalNodes>
            0 -1 119 1.0000250302255154e-02</internalNodes>
          <leafValues>
            7.3053181171417236e-02 -5.5698710680007935e-01</leafValues></_>
        <_>
          <internalNodes>
            0 -1 193 -5.2280269563198090e-02</internalNodes>
          <leafValues>
            9.0340532362461090e-02 -4.2158308625221252e-01</leafValues></_>
        <_>
          <internalNodes>
            0 -1 207 4.9646925181150436e-03</internalNodes>
          <leafValues>
            -1.3437218964099884e-01 3.7618544697761536e-01</leafValues></_>
        <_>
          <internalNodes>
            0 -1 145 -4.5894828508608043e-04</internalNodes>
          <leafValues>
            3.1699031591415405e-01 -1.3152299821376801e-01</leafValues></_>
        <_>
          <internalNodes>
            0 -1 80 2.4626951664686203e-02</internalNodes>
          <leafValues>
            -7.8245706856250763e-02 5.2531045675277710e-01</leafValues></_>
        <_>
          <internalNodes>
            0 -1 219 -3.5307893995195627e-04</internalNodes>
          <leafValues>
            2.5427654385566711e-01 -1.6264021396636963e-01</leafValues></_>
        <_>
          <internalNodes>
            0 -1 271 -4.7290949150919914e-03</internalNodes>
          <leafValues>
            -7.7888578176498413e-01 5.2527315914630890e-02</leafValues></_>
        <_>
          <internalNodes>
            0 -1 212 2.8711729682981968e-03</internalNodes>
          <leafValues>
            -9.6469692885875702e-02 4.8941677808761597e-01</leafValues></_>
        <_>
          <internalNodes>
            0 -1 75 1.2860515562351793e-04</internalNodes>
          <leafValues>
            7.4731349945068359e-02 -5.8403104543685913e-01</leafValues></_>
        <_>
          <internalNodes>
            0 -1 159 -7.2184232994914055e-03</internalNodes>
          <leafValues>
            4.4911566376686096e-01 -9.2408843338489532e-02</leafValues></_>
        <_>
          <internalNodes>
            0 -1 133 9.1327857226133347e-03</internalNodes>
          <leafValues>
            -1.2530131638050079e-01 3.9503130316734314e-01</leafValues></_>
        <_>
          <internalNodes>
            0 -1 301 -2.4251004680991173e-02</internalNodes>
          <leafValues>
            -6.3512831926345825e-01 6.6279329359531403e-02</leafValues></_>
        <_>
          <internalNodes>
            0 -1 1 2.2645914927124977e-02</internalNodes>
          <leafValues>
            5.9093035757541656e-02 -6.6884702444076538e-01</leafValues></_></weakClassifiers></_>
    <!-- stage 12 -->
    <_>
      <maxWeakCount>25</maxWeakCount>
      <stageThreshold>-1.1299384832382202e+00</stageThreshold>
      <weakClassifiers>
        <_>
          <internalNodes>
            0 -1 74 4.2259953916072845e-03</internalNodes>
          <leafValues>
            -5.7032459974288940e-01 -1.2242090702056885e-01</leafValues></_>
        <_>
          <internalNodes>
            0 -1 366 1.3048548251390457e-02</internalNodes>
          <leafValues>
            -1.7936362326145172e-01 3.1215995550155640e-01</leafValues></_>
        <_>
          <internalNodes>
            0 -1 30 -4.2650476098060608e-04</internalNodes>
          <leafValues>
            -4.3708860874176025e-01 1.0589001327753067e-01</leafValues></_>
        <_>
          <internalNodes>
            0 -1 174 -2.0412422716617584e-02</internalNodes>
          <leafValues>
            2.9399347305297852e-01 -1.5263605117797852e-01</leafValues></_>
        <_>
          <internalNodes>
            0 -1 28 9.4852548500057310e-05</internalNodes>
          <leafValues>
            -1.7582921683788300e-01 2.3842744529247284e-01</leafValues></_>
        <_>
          <internalNodes>
            0 -1 388 -5.5444004829041660e-05</internalNodes>
          <leafValues>
            -3.3893647789955139e-01 1.1705650389194489e-01</leafValues></_>
        <_>
          <internalNodes>
            0 -1 65 -3.1476731237489730e-05</internalNodes>
          <leafValues>
            -2.8200599551200867e-01 1.5505345165729523e-01</leafValues></_>
        <_>
          <internalNodes>
            0 -1 205 1.7370615387335420e-04</internalNodes>
          <leafValues>
            6.9753155112266541e-02 -5.5410766601562500e-01</leafValues></_>
        <_>
          <internalNodes>
            0 -1 377 -6.6072051413357258e-03</internalNodes>
          <leafValues>
            4.1307368874549866e-01 -1.0469458252191544e-01</leafValues></_>
        <_>
          <internalNodes>
            0 -1 334 -1.3008041423745453e-04</internalNodes>
          <leafValues>
            -2.6768016815185547e-01 1.6815799474716187e-01</leafValues></_>
        <_>
          <internalNodes>
            0 -1 391 -4.8495489172637463e-03</internalNodes>
          <leafValues>
            6.5244662761688232e-01 -8.1950202584266663e-02</leafValues></_>
        <_>
          <internalNodes>
            0 -1 215 1.1313099414110184e-02</internalNodes>
          <leafValues>
            -2.4308708310127258e-01 1.9848755002021790e-01</leafValues></_>
        <_>
          <internalNodes>
            0 -1 44 -8.2505401223897934e-04</internalNodes>
          <leafValues>
            3.7013801932334900e-01 -1.2005536258220673e-01</leafValues></_>
        <_>
          <internalNodes>
            0 -1 356 4.0410226210951805e-03</internalNodes>
          <leafValues>
            -8.6829856038093567e-02 4.3491756916046143e-01</leafValues></_>
        <_>
          <internalNodes>
            0 -1 247 3.8862642832100391e-03</internalNodes>
          <leafValues>
            -1.3476693630218506e-01 2.8719773888587952e-01</leafValues></_>
        <_>
          <internalNodes>
            0 -1 206 -9.2617003247141838e-03</internalNodes>
          <leafValues>
            3.4218516945838928e-01 -1.3616104423999786e-01</leafValues></_>
        <_>
          <internalNodes>
            0 -1 9 -1.4530814252793789e-02</internalNodes>
          <leafValues>
            3.5589593648910522e-01 -1.2382571399211884e-01</leafValues></_>
        <_>
          <internalNodes>
            0 -1 394 -4.2588089127093554e-04</internalNodes>
          <leafValues>
            -6.4626151323318481e-01 7.7108524739742279e-02</leafValues></_>
        <_>
          <internalNodes>
            0 -1 92 4.4513144530355930e-03</internalNodes>
          <leafValues>
            -1.0669484734535217e-01 4.7161626815795898e-01</leafValues></_>
        <_>
          <internalNodes>
            0 -1 229 -1.8070749938488007e-03</internalNodes>
          <leafValues>
            3.5122898221015930e-01 -1.1249512434005737e-01</leafValues></_>
        <_>
          <internalNodes>
            0 -1 156 -4.4518114009406418e-05</internalNodes>
          <leafValues>
            -3.0036804080009460e-01 1.4952503144741058e-01</leafValues></_>
        <_>
          <internalNodes>
            0 -1 295 1.0906276293098927e-03</internalNodes>
          <leafValues>
            -9.8670527338981628e-02 4.1692641377449036e-01</leafValues></_>
        <_>
          <internalNodes>
            0 -1 375 -7.6828896999359131e-04</internalNodes>
          <leafValues>
            -4.4651189446449280e-01 9.1788969933986664e-02</leafValues></_>
        <_>
          <internalNodes>
            0 -1 188 -3.4316286444664001e-02</internalNodes>
          <leafValues>
            -8.4706509113311768e-01 4.2288370430469513e-02</leafValues></_>
        <_>
          <internalNodes>
            0 -1 59 -5.1122419536113739e-03</internalNodes>
          <leafValues>
            4.5049542188644409e-01 -1.0368923842906952e-01</leafValues></_></weakClassifiers></_>
    <!-- stage 13 -->
    <_>
      <maxWeakCount>30</maxWeakCount>
      <stageThreshold>-1.1553579568862915e+00</stageThreshold>
      <weakClassifiers>
        <_>
          <internalNodes>
            0 -1 85 4.5689940452575684e-02</internalNodes>
          <leafValues>
            -4.1446807980537415e-01 1.4572864770889282e-01</leafValues></_>
        <_>
          <internalNodes>
            0 -1 327 -5.1604269538074732e-04</internalNodes>
          <leafValues>
            -5.1389187574386597e-01 6.9068990647792816e-02</leafValues></_>
        <_>
          <internalNodes>
            0 -1 25 -6.7476900294423103e-03</internalNodes>
          <leafValues>
            1.6398625075817108e-01 -2.4034909904003143e-01</leafValues></_>
        <_>
          <internalNodes>
            0 -1 95 -5.5993534624576569e-04</internalNodes>
          <leafValues>
            -7.3463678359985352e-01 7.8385002911090851e-02</leafValues></_>
        <_>
          <internalNodes>
            0 -1 52 -2.2143345326185226e-02</internalNodes>
          <leafValues>
            1.4582878351211548e-01 -2.6115506887435913e-01</leafValues></_>
        <_>
          <internalNodes>
            0 -1 221 -4.8268947284668684e-04</internalNodes>
          <leafValues>
            3.6033761501312256e-01 -1.1320876330137253e-01</leafValues></_>
        <_>
          <internalNodes>
            0 -1 96 2.2611001622863114e-04</internalNodes>
          <leafValues>
            8.1531949341297150e-02 -5.7459574937820435e-01</leafValues></_>
        <_>
          <internalNodes>
            0 -1 172 -1.6291858628392220e-02</internalNodes>
          <leafValues>
            3.0340716242790222e-01 -1.4282771944999695e-01</leafValues></_>
        <_>
          <internalNodes>
            0 -1 287 3.3752839080989361e-03</internalNodes>
          <leafValues>
            -7.5574956834316254e-02 4.8165160417556763e-01</leafValues></_>
        <_>
          <internalNodes>
            0 -1 121 3.5111341276206076e-05</internalNodes>
          <leafValues>
            -1.4815784990787506e-01 2.7855670452117920e-01</leafValues></_>
        <_>
          <internalNodes>
            0 -1 324 -7.6800614595413208e-02</internalNodes>
          <leafValues>
            2.8016051650047302e-01 -1.5110984444618225e-01</leafValues></_>
        <_>
          <internalNodes>
            0 -1 214 4.7094014007598162e-04</internalNodes>
          <leafValues>
            -1.7009282112121582e-01 2.5046765804290771e-01</leafValues></_>
        <_>
          <internalNodes>
            0 -1 139 3.1367125920951366e-03</internalNodes>
          <leafValues>
            -1.5169826149940491e-01 2.7799397706985474e-01</leafValues></_>
        <_>
          <internalNodes>
            0 -1 384 4.9697828944772482e-04</internalNodes>
          <leafValues>
            9.2935405671596527e-02 -4.1294619441032410e-01</leafValues></_>
        <_>
          <internalNodes>
            0 -1 272 -1.1216260492801666e-02</internalNodes>
          <leafValues>
            3.8147771358489990e-01 -1.0610514879226685e-01</leafValues></_>
        <_>
          <internalNodes>
            0 -1 310 4.3243417167104781e-06</internalNodes>
          <leafValues>
            -1.7897053062915802e-01 2.1497079730033875e-01</leafValues></_>
        <_>
          <internalNodes>
            0 -1 220 2.2365827113389969e-02</internalNodes>
          <leafValues>
            -1.2028888612985611e-01 3.3958756923675537e-01</leafValues></_>
        <_>
          <internalNodes>
            0 -1 100 2.0391275174915791e-03</internalNodes>
          <leafValues>
            -1.1086838692426682e-01 3.5328203439712524e-01</leafValues></_>
        <_>
          <internalNodes>
            0 -1 137 -1.2639988213777542e-02</internalNodes>
          <leafValues>
            1.8776756525039673e-01 -2.2987924516201019e-01</leafValues></_>
        <_>
          <internalNodes>
            0 -1 105 -1.0233091190457344e-02</internalNodes>
          <leafValues>
            2.5028225779533386e-01 -1.6647002100944519e-01</leafValues></_>
        <_>
          <internalNodes>
            0 -1 150 3.9448123061447404e-06</internalNodes>
          <leafValues>
            -1.9515572488307953e-01 1.9568422436714172e-01</leafValues></_>
        <_>
          <internalNodes>
            0 -1 84 -1.2110810726881027e-02</internalNodes>
          <leafValues>
            7.1984636783599854e-01 -4.8734605312347412e-02</leafValues></_>
        <_>
          <internalNodes>
            0 -1 102 -3.6383408587425947e-04</internalNodes>
          <leafValues>
            2.2908647358417511e-01 -1.7543663084506989e-01</leafValues></_>
        <_>
          <internalNodes>
            0 -1 51 -4.0170835563912988e-04</internalNodes>
          <leafValues>
            -7.9446959495544434e-01 5.2484557032585144e-02</leafValues></_>
        <_>
          <internalNodes>
            0 -1 69 5.4278020979836583e-04</internalNodes>
          <leafValues>
            -1.4377062022686005e-01 2.8842774033546448e-01</leafValues></_>
        <_>
          <internalNodes>
            0 -1 54 -1.6643812414258718e-03</internalNodes>
          <leafValues>
            2.5531607866287231e-01 -1.9900760054588318e-01</leafValues></_>
        <_>
          <internalNodes>
            0 -1 211 1.0103249223902822e-03</internalNodes>
          <leafValues>
            7.5000204145908356e-02 -5.5931848287582397e-01</leafValues></_>
        <_>
          <internalNodes>
            0 -1 317 -5.3358700824901462e-04</internalNodes>
          <leafValues>
            -5.3246009349822998e-01 6.8804085254669189e-02</leafValues></_>
        <_>
          <internalNodes>
            0 -1 225 -3.6536552943289280e-03</internalNodes>
          <leafValues>
            4.2857360839843750e-01 -1.0054821521043777e-01</leafValues></_>
        <_>
          <internalNodes>
            0 -1 55 -2.4750193115323782e-03</internalNodes>
          <leafValues>
            3.4679287672042847e-01 -1.1436732113361359e-01</leafValues></_></weakClassifiers></_>
    <!-- stage 14 -->
    <_>
      <maxWeakCount>29</maxWeakCount>
      <stageThreshold>-1.1217828989028931e+00</stageThreshold>
      <weakClassifiers>
        <_>
          <internalNodes>
            0 -1 203 -6.3458764925599098e-03</internalNodes>
          <leafValues>
            -1.0052909702062607e-01 -4.9690210819244385e-01</leafValues></_>
        <_>
          <internalNodes>
            0 -1 367 7.1851592510938644e-03</internalNodes>
          <leafValues>
            -2.7551668882369995e-01 1.5860201418399811e-01</leafValues></_>
        <_>
          <internalNodes>
            0 -1 116 -1.5100989490747452e-02</internalNodes>
          <leafValues>
            2.3757308721542358e-01 -1.5935114026069641e-01</leafValues></_>
        <_>
          <internalNodes>
            0 -1 151 -2.0338822650955990e-05</internalNodes>
          <leafValues>
            1.8139682710170746e-01 -1.9992068409919739e-01</leafValues></_>
        <_>
          <internalNodes>
            0 -1 289 -2.9923735186457634e-02</internalNodes>
          <leafValues>
            2.5090584158897400e-01 -1.4396645128726959e-01</leafValues></_>
        <_>
          <internalNodes>
            0 -1 148 -7.9842377454042435e-03</internalNodes>
          <leafValues>
            2.8285348415374756e-01 -1.3649389147758484e-01</leafValues></_>
        <_>
          <internalNodes>
            0 -1 200 3.5963896661996841e-03</internalNodes>
          <leafValues>
            -9.9063582718372345e-02 3.6679041385650635e-01</leafValues></_>
        <_>
          <internalNodes>
            0 -1 27 6.8233601748943329e-02</internalNodes>
          <leafValues>
            4.9894124269485474e-02 -8.8105595111846924e-01</leafValues></_>
        <_>
          <internalNodes>
            0 -1 252 1.2382918968796730e-02</internalNodes>
          <leafValues>
            -1.6059279441833496e-01 2.3427779972553253e-01</leafValues></_>
        <_>
          <internalNodes>
            0 -1 197 -2.9650577344000340e-03</internalNodes>
          <leafValues>
            4.3399447202682495e-01 -9.3550093472003937e-02</leafValues></_>
        <_>
          <internalNodes>
            0 -1 40 -8.1872865557670593e-03</internalNodes>
          <leafValues>
            2.3358149826526642e-01 -1.6800306737422943e-01</leafValues></_>
        <_>
          <internalNodes>
            0 -1 246 4.1789133101701736e-03</internalNodes>
          <leafValues>
            5.5087268352508545e-02 -6.9936424493789673e-01</leafValues></_>
        <_>
          <internalNodes>
            0 -1 48 2.0916532957926393e-04</internalNodes>
          <leafValues>
            6.2940999865531921e-02 -5.4670250415802002e-01</leafValues></_>
        <_>
          <internalNodes>
            0 -1 255 -4.1062789387069643e-04</internalNodes>
          <leafValues>
            1.4007169008255005e-01 -2.6029422879219055e-01</leafValues></_>
        <_>
          <internalNodes>
            0 -1 230 -9.1645447537302971e-04</internalNodes>
          <leafValues>
            3.0173805356025696e-01 -1.2973591685295105e-01</leafValues></_>
        <_>
          <internalNodes>
            0 -1 181 7.5833982555195689e-04</internalNodes>
          <leafValues>
            -2.8208869695663452e-01 1.3300013542175293e-01</leafValues></_>
        <_>
          <internalNodes>
            0 -1 87 6.9558725226670504e-04</internalNodes>
          <leafValues>
            8.3197779953479767e-02 -4.1035366058349609e-01</leafValues></_>
        <_>
          <internalNodes>
            0 -1 273 -1.2281157542020082e-03</internalNodes>
          <leafValues>
            4.2883512377738953e-01 -9.8567754030227661e-02</leafValues></_>
        <_>
          <internalNodes>
            0 -1 11 -2.6066149584949017e-03</internalNodes>
          <leafValues>
            3.3348309993743896e-01 -1.2548668682575226e-01</leafValues></_>
        <_>
          <internalNodes>
            0 -1 266 -1.1754786595702171e-02</internalNodes>
          <leafValues>
            3.9375975728034973e-01 -1.0535210371017456e-01</leafValues></_>
        <_>
          <internalNodes>
            0 -1 130 -9.3171454500406981e-04</internalNodes>
          <leafValues>
            2.7364954352378845e-01 -1.4963670074939728e-01</leafValues></_>
        <_>
          <internalNodes>
            0 -1 48 -3.8988614687696099e-04</internalNodes>
          <leafValues>
            -8.2891339063644409e-01 4.3747272342443466e-02</leafValues></_>
        <_>
          <internalNodes>
            0 -1 385 5.0988569855690002e-03</internalNodes>
          <leafValues>
            -1.1923639476299286e-01 3.3428946137428284e-01</leafValues></_>
        <_>
          <internalNodes>
            0 -1 104 -9.6972100436687469e-03</internalNodes>
          <leafValues>
            5.4601126909255981e-01 -6.6436626017093658e-02</leafValues></_>
        <_>
          <internalNodes>
            0 -1 238 7.5678038410842419e-04</internalNodes>
          <leafValues>
            -1.3563501834869385e-01 2.7253517508506775e-01</leafValues></_>
        <_>
          <internalNodes>
            0 -1 195 -3.6282776854932308e-03</internalNodes>
          <leafValues>
            -7.7922159433364868e-01 4.3114610016345978e-02</leafValues></_>
        <_>
          <internalNodes>
            0 -1 86 2.8842117171734571e-04</internalNodes>
          <leafValues>
            5.5405016988515854e-02 -5.3822869062423706e-01</leafValues></_>
        <_>
          <internalNodes>
            0 -1 176 -1.4897780492901802e-03</internalNodes>
          <leafValues>
            2.8497809171676636e-01 -1.2667287886142731e-01</leafValues></_>
        <_>
          <internalNodes>
            0 -1 179 -1.0192745830863714e-03</internalNodes>
          <leafValues>
            4.5386582612991333e-01 -7.8570552170276642e-02</leafValues></_></weakClassifiers></_>
    <!-- stage 15 -->
    <_>
      <maxWeakCount>30</maxWeakCount>
      <stageThreshold>-9.8668777942657471e-01</stageThreshold>
      <weakClassifiers>
        <_>
          <internalNodes>
            0 -1 330 1.8952805548906326e-02</internalNodes>
          <leafValues>
            -3.9378237724304199e-01 6.1904761940240860e-02</leafValues></_>
        <_>
          <internalNodes>
            0 -1 345 -7.4895028956234455e-04</internalNodes>
          <leafValues>
            -5.4891800880432129e-01 6.8372562527656555e-02</leafValues></_>
        <_>
          <internalNodes>
            0 -1 17 -4.4779703021049500e-03</internalNodes>
          <leafValues>
            3.0990311503410339e-01 -1.3005617260932922e-01</leafValues></_>
        <_>
          <internalNodes>
            0 -1 41 -5.6516326963901520e-02</internalNodes>
          <leafValues>
            -7.3442333936691284e-01 5.9256751090288162e-02</leafValues></_>
        <_>
          <internalNodes>
            0 -1 298 -5.1974132657051086e-04</internalNodes>
          <leafValues>
            1.8490333855152130e-01 -2.0658934116363525e-01</leafValues></_>
        <_>
          <internalNodes>
            0 -1 49 -1.1682121548801661e-03</internalNodes>
          <leafValues>
            -3.8296172022819519e-01 1.0176007449626923e-01</leafValues></_>
        <_>
          <internalNodes>
            0 -1 43 -3.8461936637759209e-03</internalNodes>
          <leafValues>
            3.4000387787818909e-01 -1.0854300111532211e-01</leafValues></_>
        <_>
          <internalNodes>
            0 -1 62 1.1002814862877131e-03</internalNodes>
          <leafValues>
            4.6085566282272339e-02 -8.1187415122985840e-01</leafValues></_>
        <_>
          <internalNodes>
            0 -1 278 -1.0378926526755095e-03</internalNodes>
          <leafValues>
            -4.8563537001609802e-01 6.4126268029212952e-02</leafValues></_>
        <_>
          <internalNodes>
            0 -1 224 -9.4955565873533487e-04</internalNodes>
          <leafValues>
            3.6715507507324219e-01 -1.0374792665243149e-01</leafValues></_>
        <_>
          <internalNodes>
            0 -1 392 5.4721022024750710e-03</internalNodes>
          <leafValues>
            3.6640599370002747e-02 -7.3056823015213013e-01</leafValues></_>
        <_>
          <internalNodes>
            0 -1 318 -1.4330931662698276e-05</internalNodes>
          <leafValues>
            1.9618099927902222e-01 -1.8520240485668182e-01</leafValues></_>
        <_>
          <internalNodes>
            0 -1 72 -7.7707739546895027e-03</internalNodes>
          <leafValues>
            5.8570319414138794e-01 -4.7850798815488815e-02</leafValues></_>
        <_>
          <internalNodes>
            0 -1 258 1.2336424551904202e-03</internalNodes>
          <leafValues>
            -1.2644942104816437e-01 3.1713593006134033e-01</leafValues></_>
        <_>
          <internalNodes>
            0 -1 291 6.1375326476991177e-03</internalNodes>
          <leafValues>
            -1.5763185918331146e-01 3.0460223555564880e-01</leafValues></_>
        <_>
          <internalNodes>
            0 -1 282 4.3588265776634216e-02</internalNodes>
          <leafValues>
            8.3192899823188782e-02 -6.4777243137359619e-01</leafValues></_>
        <_>
          <internalNodes>
            0 -1 50 -7.9757170169614255e-05</internalNodes>
          <leafValues>
            -3.4844684600830078e-01 1.0867917537689209e-01</leafValues></_>
        <_>
          <internalNodes>
            0 -1 263 -4.0672095492482185e-03</internalNodes>
          <leafValues>
            -6.6002166271209717e-01 5.0858929753303528e-02</leafValues></_>
        <_>
          <internalNodes>
            0 -1 196 -1.5631548594683409e-03</internalNodes>
          <leafValues>
            3.0318740010261536e-01 -1.3613113760948181e-01</leafValues></_>
        <_>
          <internalNodes>
            0 -1 323 -4.1172598139382899e-04</internalNodes>
          <leafValues>
            2.8590047359466553e-01 -1.4035546779632568e-01</leafValues></_>
        <_>
          <internalNodes>
            0 -1 7 -6.2064587837085128e-05</internalNodes>
          <leafValues>
            -3.0409678816795349e-01 1.3496330380439758e-01</leafValues></_>
        <_>
          <internalNodes>
            0 -1 209 -9.1599993174895644e-04</internalNodes>
          <leafValues>
            2.8315314650535583e-01 -1.4391994476318359e-01</leafValues></_>
        <_>
          <internalNodes>
            0 -1 147 1.3032620772719383e-03</internalNodes>
          <leafValues>
            -1.6134575009346008e-01 2.5986424088478088e-01</leafValues></_>
        <_>
          <internalNodes>
            0 -1 339 -1.4744126237928867e-03</internalNodes>
          <leafValues>
            2.6838111877441406e-01 -1.5735843777656555e-01</leafValues></_>
        <_>
          <internalNodes>
            0 -1 132 -1.1982591822743416e-03</internalNodes>
          <leafValues>
            -6.5260249376296997e-01 5.8543026447296143e-02</leafValues></_>
        <_>
          <internalNodes>
            0 -1 131 -7.4541009962558746e-03</internalNodes>
          <leafValues>
            -7.2923833131790161e-01 4.8728000372648239e-02</leafValues></_>
        <_>
          <internalNodes>
            0 -1 313 3.4068210516124964e-04</internalNodes>
          <leafValues>
            -1.5279604494571686e-01 2.4969686567783356e-01</leafValues></_>
        <_>
          <internalNodes>
            0 -1 10 -1.8127787858247757e-02</internalNodes>
          <leafValues>
            2.2870345413684845e-01 -1.6709730029106140e-01</leafValues></_>
        <_>
          <internalNodes>
            0 -1 81 -4.9877695739269257e-02</internalNodes>
          <leafValues>
            2.1792794764041901e-01 -1.7642205953598022e-01</leafValues></_>
        <_>
          <internalNodes>
            0 -1 165 -1.3176496140658855e-03</internalNodes>
          <leafValues>
            -6.4759755134582520e-01 5.6735504418611526e-02</leafValues></_></weakClassifiers></_>
    <!-- stage 16 -->
    <_>
      <maxWeakCount>25</maxWeakCount>
      <stageThreshold>-6.8861752748489380e-01</stageThreshold>
      <weakClassifiers>
        <_>
          <internalNodes>
            0 -1 70 2.4783781263977289e-03</internalNodes>
          <leafValues>
            -1.4854517579078674e-01 3.4090909361839294e-01</leafValues></_>
        <_>
          <internalNodes>
            0 -1 16 -1.6304587479680777e-03</internalNodes>
          <leafValues>
            5.2789986133575439e-01 -8.4082074463367462e-02</leafValues></_>
        <_>
          <internalNodes>
            0 -1 354 -2.3787390440702438e-02</internalNodes>
          <leafValues>
            2.6721593737602234e-01 -1.7972302436828613e-01</leafValues></_>
        <_>
          <internalNodes>
            0 -1 390 1.3354718685150146e-03</internalNodes>
          <leafValues>
            -1.2332215905189514e-01 4.2688229680061340e-01</leafValues></_>
        <_>
          <internalNodes>
            0 -1 122 -5.6596966460347176e-03</internalNodes>
          <leafValues>
            2.7212923765182495e-01 -1.6549997031688690e-01</leafValues></_>
        <_>
          <internalNodes>
            0 -1 39 -3.0573289841413498e-03</internalNodes>
          <leafValues>
            4.9538797140121460e-01 -9.2758804559707642e-02</leafValues></_>
        <_>
          <internalNodes>
            0 -1 306 4.9159047193825245e-04</internalNodes>
          <leafValues>
            -1.2822766602039337e-01 2.9963111877441406e-01</leafValues></_>
        <_>
          <internalNodes>
            0 -1 198 1.0937827937596012e-05</internalNodes>
          <leafValues>
            -1.8187671899795532e-01 2.2062757611274719e-01</leafValues></_>
        <_>
          <internalNodes>
            0 -1 256 2.6948207523673773e-03</internalNodes>
          <leafValues>
            -2.6039689779281616e-01 1.7834381759166718e-01</leafValues></_>
        <_>
          <internalNodes>
            0 -1 267 7.0517981657758355e-04</internalNodes>
          <leafValues>
            -1.8322113156318665e-01 3.1928923726081848e-01</leafValues></_>
        <_>
          <internalNodes>
            0 -1 376 -7.5676396954804659e-04</internalNodes>
          <leafValues>
            -6.9867712259292603e-01 1.0002984851598740e-01</leafValues></_>
        <_>
          <internalNodes>
            0 -1 329 -1.6043195500969887e-03</internalNodes>
          <leafValues>
            3.1725281476974487e-01 -1.5861448645591736e-01</leafValues></_>
        <_>
          <internalNodes>
            0 -1 280 2.1072826348245144e-03</internalNodes>
          <leafValues>
            -8.2307197153568268e-02 5.0984025001525879e-01</leafValues></_>
        <_>
          <internalNodes>
            0 -1 152 5.6177924852818251e-04</internalNodes>
          <leafValues>
            6.7434959113597870e-02 -7.3051804304122925e-01</leafValues></_>
        <_>
          <internalNodes>
            0 -1 189 -1.6196994110941887e-03</internalNodes>
          <leafValues>
            3.6582323908805847e-01 -1.4845474064350128e-01</leafValues></_>
        <_>
          <internalNodes>
            0 -1 99 2.9140468686819077e-03</internalNodes>
          <leafValues>
            -6.3252530992031097e-02 5.4731029272079468e-01</leafValues></_>
        <_>
          <internalNodes>
            0 -1 249 6.5857212757691741e-04</internalNodes>
          <leafValues>
            -1.5467427670955658e-01 2.8177925944328308e-01</leafValues></_>
        <_>
          <internalNodes>
            0 -1 53 -2.5329135358333588e-02</internalNodes>
          <leafValues>
            2.7617663145065308e-01 -1.7093057930469513e-01</leafValues></_>
        <_>
          <internalNodes>
            0 -1 183 -3.8053763091738801e-06</internalNodes>
          <leafValues>
            1.9309282302856445e-01 -2.3993144929409027e-01</leafValues></_>
        <_>
          <internalNodes>
            0 -1 328 2.0699226297438145e-03</internalNodes>
          <leafValues>
            9.8737359046936035e-02 -5.1718449592590332e-01</leafValues></_>
        <_>
          <internalNodes>
            0 -1 37 4.6744607388973236e-03</internalNodes>
          <leafValues>
            -1.0074450075626373e-01 5.0130617618560791e-01</leafValues></_>
        <_>
          <internalNodes>
            0 -1 349 -1.5592060983181000e-02</internalNodes>
          <leafValues>
            6.0748183727264404e-01 -6.9728106260299683e-02</leafValues></_>
        <_>
          <internalNodes>
            0 -1 111 9.0778525918722153e-03</internalNodes>
          <leafValues>
            -5.6120827794075012e-02 7.7983134984970093e-01</leafValues></_>
        <_>
          <internalNodes>
            0 -1 216 4.2728655971586704e-03</internalNodes>
          <leafValues>
            -1.0762904584407806e-01 4.3162098526954651e-01</leafValues></_>
        <_>
          <internalNodes>
            0 -1 340 -3.0121195595711470e-04</internalNodes>
          <leafValues>
            -2.3796284198760986e-01 2.1309305727481842e-01</leafValues></_></weakClassifiers></_>
    <!-- stage 17 -->
    <_>
      <maxWeakCount>28</maxWeakCount>
      <stageThreshold>-7.3528653383255005e-01</stageThreshold>
      <weakClassifiers>
        <_>
          <internalNodes>
            0 -1 45 -1.1795016936957836e-02</internalNodes>
          <leafValues>
            4.4186046719551086e-01 -3.2786883413791656e-02</leafValues></_>
        <_>
          <internalNodes>
            0 -1 395 3.4282745327800512e-03</internalNodes>
          <leafValues>
            -7.1091108024120331e-02 5.9340137243270874e-01</leafValues></_>
        <_>
          <internalNodes>
            0 -1 243 -2.6837203186005354e-03</internalNodes>
          <leafValues>
            4.4623970985412598e-01 -1.0935286432504654e-01</leafValues></_>
        <_>
          <internalNodes>
            0 -1 251 4.4295593397691846e-04</internalNodes>
          <leafValues>
            -1.6100667417049408e-01 3.6384394764900208e-01</leafValues></_>
        <_>
          <internalNodes>
            0 -1 400 5.4524382576346397e-03</internalNodes>
          <leafValues>
            6.3463434576988220e-02 -6.7832827568054199e-01</leafValues></_>
        <_>
          <internalNodes>
            0 -1 360 1.7460233066231012e-03</internalNodes>
          <leafValues>
            6.8530149757862091e-02 -8.4648740291595459e-01</leafValues></_>
        <_>
          <internalNodes>
            0 -1 58 -9.5332530327141285e-04</internalNodes>
          <leafValues>
            5.9795230627059937e-01 -7.7316887676715851e-02</leafValues></_>
        <_>
          <internalNodes>
            0 -1 210 3.8024647892598296e-06</internalNodes>
          <leafValues>
            -2.2105740010738373e-01 2.2255213558673859e-01</leafValues></_>
        <_>
          <internalNodes>
            0 -1 311 1.1174022220075130e-03</internalNodes>
          <leafValues>
            -2.2231844067573547e-01 2.2046536207199097e-01</leafValues></_>
        <_>
          <internalNodes>
            0 -1 335 1.2727612629532814e-03</internalNodes>
          <leafValues>
            9.1468423604965210e-02 -6.4206147193908691e-01</leafValues></_>
        <_>
          <internalNodes>
            0 -1 257 -4.7670380445197225e-04</internalNodes>
          <leafValues>
            4.2281806468963623e-01 -1.2550768256187439e-01</leafValues></_>
        <_>
          <internalNodes>
            0 -1 389 1.7414239118807018e-04</internalNodes>
          <leafValues>
            1.1773166060447693e-01 -4.3491846323013306e-01</leafValues></_>
        <_>
          <internalNodes>
            0 -1 264 -3.8997991941869259e-04</internalNodes>
          <leafValues>
            3.8704478740692139e-01 -1.2570837140083313e-01</leafValues></_>
        <_>
          <internalNodes>
            0 -1 325 -4.5300200581550598e-03</internalNodes>
          <leafValues>
            2.1651299297809601e-01 -2.2442618012428284e-01</leafValues></_>
        <_>
          <internalNodes>
            0 -1 154 -2.1870021009817719e-04</internalNodes>
          <leafValues>
            -6.6656339168548584e-01 7.1819789707660675e-02</leafValues></_>
        <_>
          <internalNodes>
            0 -1 235 -1.1520432308316231e-03</internalNodes>
          <leafValues>
            -7.4819016456604004e-01 6.0233090072870255e-02</leafValues></_>
        <_>
          <internalNodes>
            0 -1 199 -8.0040021566674113e-04</internalNodes>
          <leafValues>
            4.4209402799606323e-01 -1.2229470908641815e-01</leafValues></_>
        <_>
          <internalNodes>
            0 -1 234 1.3393711997196078e-03</internalNodes>
          <leafValues>
            -8.7076336145401001e-02 6.1868637800216675e-01</leafValues></_>
        <_>
          <internalNodes>
            0 -1 180 1.3068459928035736e-02</internalNodes>
          <leafValues>
            9.7006961703300476e-02 -5.8824950456619263e-01</leafValues></_>
        <_>
          <internalNodes>
            0 -1 226 3.0983967008069158e-04</internalNodes>
          <leafValues>
            -1.2983368337154388e-01 4.3781420588493347e-01</leafValues></_>
        <_>
          <internalNodes>
            0 -1 399 -1.3346844352781773e-03</internalNodes>
          <leafValues>
            -4.3087336421012878e-01 1.2885753810405731e-01</leafValues></_>
        <_>
          <internalNodes>
            0 -1 362 -4.3793888762593269e-03</internalNodes>
          <leafValues>
            4.2114710807800293e-01 -1.2406782805919647e-01</leafValues></_>
        <_>
          <internalNodes>
            0 -1 279 -3.0404439894482493e-04</internalNodes>
          <leafValues>
            -3.2724151015281677e-01 1.6167403757572174e-01</leafValues></_>
        <_>
          <internalNodes>
            0 -1 341 -1.4572164509445429e-03</internalNodes>
          <leafValues>
            5.1484626531600952e-01 -1.0069078207015991e-01</leafValues></_>
        <_>
          <internalNodes>
            0 -1 379 -3.8053763091738801e-06</internalNodes>
          <leafValues>
            2.8896796703338623e-01 -1.9128835201263428e-01</leafValues></_>
        <_>
          <internalNodes>
            0 -1 202 7.1454262360930443e-03</internalNodes>
          <leafValues>
            -6.9410450756549835e-02 7.4491024017333984e-01</leafValues></_>
        <_>
          <internalNodes>
            0 -1 134 -1.5098938718438148e-02</internalNodes>
          <leafValues>
            5.4103136062622070e-01 -8.5081413388252258e-02</leafValues></_>
        <_>
          <internalNodes>
            0 -1 270 -4.0880582673707977e-05</internalNodes>
          <leafValues>
            -3.3968627452850342e-01 1.8516123294830322e-01</leafValues></_></weakClassifiers></_>
    <!-- stage 18 -->
    <_>
      <maxWeakCount>26</maxWeakCount>
      <stageThreshold>-8.0535751581192017e-01</stageThreshold>
      <weakClassifiers>
        <_>
          <internalNodes>
            0 -1 358 2.8735020896419883e-04</internalNodes>
          <leafValues>
            -6.8750001490116119e-02 4.3127962946891785e-01</leafValues></_>
        <_>
          <internalNodes>
            0 -1 160 -9.4538345932960510e-02</internalNodes>
          <leafValues>
            -6.4400553703308105e-01 9.8610036075115204e-02</leafValues></_>
        <_>
          <internalNodes>
            0 -1 46 4.6172051224857569e-04</internalNodes>
          <leafValues>
            -1.9109363853931427e-01 2.7243134379386902e-01</leafValues></_>
        <_>
          <internalNodes>
            0 -1 168 -4.4121796963736415e-04</internalNodes>
          <leafValues>
            -3.6650916934013367e-01 1.3992907106876373e-01</leafValues></_>
        <_>
          <internalNodes>
            0 -1 213 2.2480753250420094e-03</internalNodes>
          <leafValues>
            -1.3634632527828217e-01 4.1381302475929260e-01</leafValues></_>
        <_>
          <internalNodes>
            0 -1 265 -7.1945847594179213e-05</internalNodes>
          <leafValues>
            -2.7608773112297058e-01 2.3151592910289764e-01</leafValues></_>
        <_>
          <internalNodes>
            0 -1 71 1.2506841681897640e-02</internalNodes>
          <leafValues>
            -1.3736243546009064e-01 4.8263701796531677e-01</leafValues></_>
        <_>
          <internalNodes>
            0 -1 94 -1.7743706703186035e-02</internalNodes>
          <leafValues>
            2.0928971469402313e-01 -2.5644907355308533e-01</leafValues></_>
        <_>
          <internalNodes>
            0 -1 98 -1.4966732263565063e-01</internalNodes>
          <leafValues>
            4.1910025477409363e-01 -1.4680603146553040e-01</leafValues></_>
        <_>
          <internalNodes>
            0 -1 363 -1.0819594535860233e-05</internalNodes>
          <leafValues>
            2.9624480009078979e-01 -1.7221240699291229e-01</leafValues></_>
        <_>
          <internalNodes>
            0 -1 297 -1.6046412289142609e-02</internalNodes>
          <leafValues>
            7.3823809623718262e-01 -6.4645223319530487e-02</leafValues></_>
        <_>
          <internalNodes>
            0 -1 90 6.0547683387994766e-03</internalNodes>
          <leafValues>
            8.5442543029785156e-02 -7.4671375751495361e-01</leafValues></_>
        <_>
          <internalNodes>
            0 -1 275 -4.9087386287283152e-05</internalNodes>
          <leafValues>
            3.4273791313171387e-01 -1.8119813501834869e-01</leafValues></_>
        <_>
          <internalNodes>
            0 -1 396 -3.5328519879840314e-04</internalNodes>
          <leafValues>
            -5.4054683446884155e-01 1.1129962652921677e-01</leafValues></_>
        <_>
          <internalNodes>
            0 -1 380 5.2808551117777824e-05</internalNodes>
          <leafValues>
            -1.9747889041900635e-01 2.7049937844276428e-01</leafValues></_>
        <_>
          <internalNodes>
            0 -1 332 -7.8402430517598987e-05</internalNodes>
          <leafValues>
            -2.8117400407791138e-01 2.0908229053020477e-01</leafValues></_>
        <_>
          <internalNodes>
            0 -1 344 -3.5301753086969256e-05</internalNodes>
          <leafValues>
            2.9824918508529663e-01 -2.1544015407562256e-01</leafValues></_>
        <_>
          <internalNodes>
            0 -1 302 -1.9216963555663824e-03</internalNodes>
          <leafValues>
            4.9575996398925781e-01 -1.1333777755498886e-01</leafValues></_>
        <_>
          <internalNodes>
            0 -1 321 4.0318549145013094e-04</internalNodes>
          <leafValues>
            8.7350256741046906e-02 -7.7083027362823486e-01</leafValues></_>
        <_>
          <internalNodes>
            0 -1 120 -4.3598120100796223e-03</internalNodes>
          <leafValues>
            5.3416579961776733e-01 -1.4210987091064453e-01</leafValues></_>
        <_>
          <internalNodes>
            0 -1 73 -2.0795546879526228e-04</internalNodes>
          <leafValues>
            3.9402326941490173e-01 -1.5003851056098938e-01</leafValues></_>
        <_>
          <internalNodes>
            0 -1 398 2.0637005218304694e-04</internalNodes>
          <leafValues>
            1.1674346029758453e-01 -5.7295638322830200e-01</leafValues></_>
        <_>
          <internalNodes>
            0 -1 397 4.9010021029971540e-05</internalNodes>
          <leafValues>
            1.4279943704605103e-01 -3.9674556255340576e-01</leafValues></_>
        <_>
          <internalNodes>
            0 -1 66 -1.0976372286677361e-03</internalNodes>
          <leafValues>
            4.8745805025100708e-01 -1.3114638626575470e-01</leafValues></_>
        <_>
          <internalNodes>
            0 -1 331 3.9269734406843781e-04</internalNodes>
          <leafValues>
            8.2238756120204926e-02 -8.1101453304290771e-01</leafValues></_>
        <_>
          <internalNodes>
            0 -1 286 1.4234606642276049e-03</internalNodes>
          <leafValues>
            -1.5416696667671204e-01 3.7624958157539368e-01</leafValues></_></weakClassifiers></_>
    <!-- stage 19 -->
    <_>
      <maxWeakCount>22</maxWeakCount>
      <stageThreshold>-4.9867063760757446e-01</stageThreshold>
      <weakClassifiers>
        <_>
          <internalNodes>
            0 -1 276 -5.3830631077289581e-02</internalNodes>
          <leafValues>
            -6.6666668653488159e-01 4.0952381491661072e-01</leafValues></_>
        <_>
          <internalNodes>
            0 -1 300 2.1082254126667976e-02</internalNodes>
          <leafValues>
            -5.4814178496599197e-02 6.8444257974624634e-01</leafValues></_>
        <_>
          <internalNodes>
            0 -1 378 2.2878421004861593e-03</internalNodes>
          <leafValues>
            -1.9604788720607758e-01 3.6498507857322693e-01</leafValues></_>
        <_>
          <internalNodes>
            0 -1 112 -6.5220117568969727e-02</internalNodes>
          <leafValues>
            4.3267312645912170e-01 -1.5478451550006866e-01</leafValues></_>
        <_>
          <internalNodes>
            0 -1 201 -5.0951823592185974e-02</internalNodes>
          <leafValues>
            2.4581593275070190e-01 -2.8166657686233521e-01</leafValues></_>
        <_>
          <internalNodes>
            0 -1 22 -8.6507678031921387e-02</internalNodes>
          <leafValues>
            6.2739861011505127e-01 -1.1809211224317551e-01</leafValues></_>
        <_>
          <internalNodes>
            0 -1 83 -2.3047171998769045e-04</internalNodes>
          <leafValues>
            4.5964801311492920e-01 -1.4134870469570160e-01</leafValues></_>
        <_>
          <internalNodes>
            0 -1 78 -4.6573612093925476e-01</internalNodes>
          <leafValues>
            6.2406414747238159e-01 -1.0497484356164932e-01</leafValues></_>
        <_>
          <internalNodes>
            0 -1 372 6.6042586695402861e-05</internalNodes>
          <leafValues>
            -1.8286357820034027e-01 3.6788430809974670e-01</leafValues></_>
        <_>
          <internalNodes>
            0 -1 259 8.8506541214883327e-04</internalNodes>
          <leafValues>
            -9.2943236231803894e-02 6.3821208477020264e-01</leafValues></_>
        <_>
          <internalNodes>
            0 -1 285 -2.2780180443078279e-03</internalNodes>
          <leafValues>
            3.1100729107856750e-01 -2.0145677030086517e-01</leafValues></_>
        <_>
          <internalNodes>
            0 -1 284 1.5444896416738629e-03</internalNodes>
          <leafValues>
            -1.5245398879051208e-01 5.0015097856521606e-01</leafValues></_>
        <_>
          <internalNodes>
            0 -1 326 8.1667705671861768e-04</internalNodes>
          <leafValues>
            -1.2100290507078171e-01 5.1607578992843628e-01</leafValues></_>
        <_>
          <internalNodes>
            0 -1 312 -2.3753596469759941e-03</internalNodes>
          <leafValues>
            3.7455096840858459e-01 -1.6093362867832184e-01</leafValues></_>
        <_>
          <internalNodes>
            0 -1 31 -5.1843095570802689e-03</internalNodes>
          <leafValues>
            -6.2018853425979614e-01 1.2571810185909271e-01</leafValues></_>
        <_>
          <internalNodes>
            0 -1 162 1.8719078507274389e-03</internalNodes>
          <leafValues>
            -1.8814978003501892e-01 3.6788001656532288e-01</leafValues></_>
        <_>
          <internalNodes>
            0 -1 337 -4.9525842769071460e-05</internalNodes>
          <leafValues>
            -4.1582155227661133e-01 1.8054357171058655e-01</leafValues></_>
        <_>
          <internalNodes>
            0 -1 299 -3.8884338573552668e-04</internalNodes>
          <leafValues>
            4.1984206438064575e-01 -1.7678569257259369e-01</leafValues></_>
        <_>
          <internalNodes>
            0 -1 128 3.5054840147495270e-02</internalNodes>
          <leafValues>
            1.2256550788879395e-01 -6.0606932640075684e-01</leafValues></_>
        <_>
          <internalNodes>
            0 -1 127 -4.7277516569010913e-04</internalNodes>
          <leafValues>
            4.2474195361137390e-01 -1.7049235105514526e-01</leafValues></_>
        <_>
          <internalNodes>
            0 -1 361 2.3282680558622815e-05</internalNodes>
          <leafValues>
            2.5789543986320496e-01 -2.6523244380950928e-01</leafValues></_>
        <_>
          <internalNodes>
            0 -1 164 -8.2098318671341985e-05</internalNodes>
          <leafValues>
            -3.0749183893203735e-01 2.3159265518188477e-01</leafValues></_></weakClassifiers></_></stages>
  <features>
    <_>
      <rects>
        <_>
          0 0 8 1 -1.</_>
        <_>
          4 0 4 1 2.</_></rects>
      <tilted>0</tilted></_>
    <_>
      <rects>
        <_>
          0 0 44 2 -1.</_>
        <_>
          22 0 22 2 2.</_></rects>
      <tilted>0</tilted></_>
    <_>
      <rects>
        <_>
          0 1 22 10 -1.</_>
        <_>
          0 1 11 5 2.</_>
        <_>
          11 6 11 5 2.</_></rects>
      <tilted>0</tilted></_>
    <_>
      <rects>
        <_>
          0 1 41 30 -1.</_>
        <_>
          0 16 41 15 2.</_></rects>
      <tilted>0</tilted></_>
    <_>
      <rects>
        <_>
          0 5 6 17 -1.</_>
        <_>
          2 5 2 17 3.</_></rects>
      <tilted>0</tilted></_>
    <_>
      <rects>
        <_>
          0 5 14 5 -1.</_>
        <_>
          7 5 7 5 2.</_></rects>
      <tilted>0</tilted></_>
    <_>
      <rects>
        <_>
          0 5 24 24 -1.</_>
        <_>
          12 5 12 24 2.</_></rects>
      <tilted>0</tilted></_>
    <_>
      <rects>
        <_>
          0 6 3 2 -1.</_>
        <_>
          1 6 1 2 3.</_></rects>
      <tilted>0</tilted></_>
    <_>
      <rects>
        <_>
          0 7 14 4 -1.</_>
        <_>
          0 7 7 2 2.</_>
        <_>
          7 9 7 2 2.</_></rects>
      <tilted>0</tilted></_>
    <_>
      <rects>
        <_>
          0 8 36 2 -1.</_>
        <_>
          12 8 12 2 3.</_></rects>
      <tilted>0</tilted></_>
    <_>
      <rects>
        <_>
          0 10 16 22 -1.</_>
        <_>
          0 10 8 11 2.</_>
        <_>
          8 21 8 11 2.</_></rects>
      <tilted>0</tilted></_>
    <_>
      <rects>
        <_>
          0 11 6 9 -1.</_>
        <_>
          2 11 2 9 3.</_></rects>
      <tilted>0</tilted></_>
    <_>
      <rects>
        <_>
          0 11 9 18 -1.</_>
        <_>
          3 11 3 18 3.</_></rects>
      <tilted>0</tilted></_>
    <_>
      <rects>
        <_>
          0 13 6 15 -1.</_>
        <_>
          3 13 3 15 2.</_></rects>
      <tilted>0</tilted></_>
    <_>
      <rects>
        <_>
          0 16 2 6 -1.</_>
        <_>
          1 16 1 6 2.</_></rects>
      <tilted>0</tilted></_>
    <_>
      <rects>
        <_>
          0 16 3 6 -1.</_>
        <_>
          1 16 1 6 3.</_></rects>
      <tilted>0</tilted></_>
    <_>
      <rects>
        <_>
          0 16 2 7 -1.</_>
        <_>
          1 16 1 7 2.</_></rects>
      <tilted>0</tilted></_>
    <_>
      <rects>
        <_>
          0 16 6 8 -1.</_>
        <_>
          3 16 3 8 2.</_></rects>
      <tilted>0</tilted></_>
    <_>
      <rects>
        <_>
          0 16 6 12 -1.</_>
        <_>
          3 16 3 12 2.</_></rects>
      <tilted>0</tilted></_>
    <_>
      <rects>
        <_>
          0 16 8 14 -1.</_>
        <_>
          4 16 4 14 2.</_></rects>
      <tilted>0</tilted></_>
    <_>
      <rects>
        <_>
          0 18 38 6 -1.</_>
        <_>
          0 21 38 3 2.</_></rects>
      <tilted>0</tilted></_>
    <_>
      <rects>
        <_>
          0 19 8 11 -1.</_>
        <_>
          4 19 4 11 2.</_></rects>
      <tilted>0</tilted></_>
    <_>
      <rects>
        <_>
          0 19 42 12 -1.</_>
        <_>
          0 25 42 6 2.</_></rects>
      <tilted>0</tilted></_>
    <_>
      <rects>
        <_>
          0 20 18 12 -1.</_>
        <_>
          9 20 9 12 2.</_></rects>
      <tilted>0</tilted></_>
    <_>
      <rects>
        <_>
          0 20 51 12 -1.</_>
        <_>
          0 24 51 4 3.</_></rects>
      <tilted>0</tilted></_>
    <_>
      <rects>
        <_>
          0 21 24 8 -1.</_>
        <_>
          8 21 8 8 3.</_></rects>
      <tilted>0</tilted></_>
    <_>
      <rects>
        <_>
          0 22 14 9 -1.</_>
        <_>
          7 22 7 9 2.</_></rects>
      <tilted>0</tilted></_>
    <_>
      <rects>
        <_>
          0 22 13 10 -1.</_>
        <_>
          0 27 13 5 2.</_></rects>
      <tilted>0</tilted></_>
    <_>
      <rects>
        <_>
          0 24 7 2 -1.</_>
        <_>
          0 25 7 1 2.</_></rects>
      <tilted>0</tilted></_>
    <_>
      <rects>
        <_>
          0 25 45 6 -1.</_>
        <_>
          15 25 15 6 3.</_></rects>
      <tilted>0</tilted></_>
    <_>
      <rects>
        <_>
          0 26 3 6 -1.</_>
        <_>
          1 26 1 6 3.</_></rects>
      <tilted>0</tilted></_>
    <_>
      <rects>
        <_>
          0 26 36 2 -1.</_>
        <_>
          0 26 18 1 2.</_>
        <_>
          18 27 18 1 2.</_></rects>
      <tilted>0</tilted></_>
    <_>
      <rects>
        <_>
          0 27 22 3 -1.</_>
        <_>
          11 27 11 3 2.</_></rects>
      <tilted>0</tilted></_>
    <_>
      <rects>
        <_>
          0 27 30 4 -1.</_>
        <_>
          15 27 15 4 2.</_></rects>
      <tilted>0</tilted></_>
    <_>
      <rects>
        <_>
          0 28 18 1 -1.</_>
        <_>
          9 28 9 1 2.</_></rects>
      <tilted>0</tilted></_>
    <_>
      <rects>
        <_>
          0 28 26 4 -1.</_>
        <_>
          0 30 26 2 2.</_></rects>
      <tilted>0</tilted></_>
    <_>
      <rects>
        <_>
          0 29 9 3 -1.</_>
        <_>
          3 29 3 3 3.</_></rects>
      <tilted>0</tilted></_>
    <_>
      <rects>
        <_>
          1 0 4 24 -1.</_>
        <_>
          3 0 2 24 2.</_></rects>
      <tilted>0</tilted></_>
    <_>
      <rects>
        <_>
          1 0 50 26 -1.</_>
        <_>
          1 13 50 13 2.</_></rects>
      <tilted>0</tilted></_>
    <_>
      <rects>
        <_>
          1 1 2 23 -1.</_>
        <_>
          2 1 1 23 2.</_></rects>
      <tilted>0</tilted></_>
    <_>
      <rects>
        <_>
          1 11 4 18 -1.</_>
        <_>
          1 17 4 6 3.</_></rects>
      <tilted>0</tilted></_>
    <_>
      <rects>
        <_>
          1 11 24 10 -1.</_>
        <_>
          9 11 8 10 3.</_></rects>
      <tilted>0</tilted></_>
    <_>
      <rects>
        <_>
          1 13 6 11 -1.</_>
        <_>
          3 13 2 11 3.</_></rects>
      <tilted>0</tilted></_>
    <_>
      <rects>
        <_>
          1 14 4 18 -1.</_>
        <_>
          1 14 2 9 2.</_>
        <_>
          3 23 2 9 2.</_></rects>
      <tilted>0</tilted></_>
    <_>
      <rects>
        <_>
          1 16 8 2 -1.</_>
        <_>
          1 16 4 1 2.</_>
        <_>
          5 17 4 1 2.</_></rects>
      <tilted>0</tilted></_>
    <_>
      <rects>
        <_>
          1 18 18 9 -1.</_>
        <_>
          7 18 6 9 3.</_></rects>
      <tilted>0</tilted></_>
    <_>
      <rects>
        <_>
          1 23 21 4 -1.</_>
        <_>
          1 25 21 2 2.</_></rects>
      <tilted>0</tilted></_>
    <_>
      <rects>
        <_>
          1 30 2 2 -1.</_>
        <_>
          2 30 1 2 2.</_></rects>
      <tilted>0</tilted></_>
    <_>
      <rects>
        <_>
          1 31 3 1 -1.</_>
        <_>
          2 31 1 1 3.</_></rects>
      <tilted>0</tilted></_>
    <_>
      <rects>
        <_>
          2 0 14 1 -1.</_>
        <_>
          9 0 7 1 2.</_></rects>
      <tilted>0</tilted></_>
    <_>
      <rects>
        <_>
          2 1 1 2 -1.</_>
        <_>
          2 2 1 1 2.</_></rects>
      <tilted>0</tilted></_>
    <_>
      <rects>
        <_>
          2 6 2 2 -1.</_>
        <_>
          2 6 1 1 2.</_>
        <_>
          3 7 1 1 2.</_></rects>
      <tilted>0</tilted></_>
    <_>
      <rects>
        <_>
          2 6 24 25 -1.</_>
        <_>
          14 6 12 25 2.</_></rects>
      <tilted>0</tilted></_>
    <_>
      <rects>
        <_>
          2 8 36 6 -1.</_>
        <_>
          20 8 18 6 2.</_></rects>
      <tilted>0</tilted></_>
    <_>
      <rects>
        <_>
          2 11 6 16 -1.</_>
        <_>
          4 11 2 16 3.</_></rects>
      <tilted>0</tilted></_>
    <_>
      <rects>
        <_>
          2 11 23 3 -1.</_>
        <_>
          2 12 23 1 3.</_></rects>
      <tilted>0</tilted></_>
    <_>
      <rects>
        <_>
          2 14 2 1 -1.</_>
        <_>
          3 14 1 1 2.</_></rects>
      <tilted>0</tilted></_>
    <_>
      <rects>
        <_>
          2 17 21 12 -1.</_>
        <_>
          9 17 7 12 3.</_></rects>
      <tilted>0</tilted></_>
    <_>
      <rects>
        <_>
          2 19 2 10 -1.</_>
        <_>
          2 19 1 5 2.</_>
        <_>
          3 24 1 5 2.</_></rects>
      <tilted>0</tilted></_>
    <_>
      <rects>
        <_>
          2 27 20 4 -1.</_>
        <_>
          2 27 10 2 2.</_>
        <_>
          12 29 10 2 2.</_></rects>
      <tilted>0</tilted></_>
    <_>
      <rects>
        <_>
          2 28 2 3 -1.</_>
        <_>
          3 28 1 3 2.</_></rects>
      <tilted>0</tilted></_>
    <_>
      <rects>
        <_>
          2 31 36 1 -1.</_>
        <_>
          20 31 18 1 2.</_></rects>
      <tilted>0</tilted></_>
    <_>
      <rects>
        <_>
          3 0 1 4 -1.</_>
        <_>
          3 2 1 2 2.</_></rects>
      <tilted>0</tilted></_>
    <_>
      <rects>
        <_>
          3 0 46 28 -1.</_>
        <_>
          3 14 46 14 2.</_></rects>
      <tilted>0</tilted></_>
    <_>
      <rects>
        <_>
          3 1 22 10 -1.</_>
        <_>
          3 1 11 5 2.</_>
        <_>
          14 6 11 5 2.</_></rects>
      <tilted>0</tilted></_>
    <_>
      <rects>
        <_>
          3 6 2 2 -1.</_>
        <_>
          3 6 1 1 2.</_>
        <_>
          4 7 1 1 2.</_></rects>
      <tilted>0</tilted></_>
    <_>
      <rects>
        <_>
          3 6 9 2 -1.</_>
        <_>
          6 6 3 2 3.</_></rects>
      <tilted>0</tilted></_>
    <_>
      <rects>
        <_>
          3 8 22 18 -1.</_>
        <_>
          3 8 11 9 2.</_>
        <_>
          14 17 11 9 2.</_></rects>
      <tilted>0</tilted></_>
    <_>
      <rects>
        <_>
          3 10 22 12 -1.</_>
        <_>
          3 10 11 6 2.</_>
        <_>
          14 16 11 6 2.</_></rects>
      <tilted>0</tilted></_>
    <_>
      <rects>
        <_>
          3 11 3 11 -1.</_>
        <_>
          4 11 1 11 3.</_></rects>
      <tilted>0</tilted></_>
    <_>
      <rects>
        <_>
          3 11 44 3 -1.</_>
        <_>
          3 12 44 1 3.</_></rects>
      <tilted>0</tilted></_>
    <_>
      <rects>
        <_>
          3 15 32 4 -1.</_>
        <_>
          3 15 16 2 2.</_>
        <_>
          19 17 16 2 2.</_></rects>
      <tilted>0</tilted></_>
    <_>
      <rects>
        <_>
          3 18 16 4 -1.</_>
        <_>
          3 18 8 2 2.</_>
        <_>
          11 20 8 2 2.</_></rects>
      <tilted>0</tilted></_>
    <_>
      <rects>
        <_>
          3 23 3 3 -1.</_>
        <_>
          4 23 1 3 3.</_></rects>
      <tilted>0</tilted></_>
    <_>
      <rects>
        <_>
          3 26 15 6 -1.</_>
        <_>
          3 29 15 3 2.</_></rects>
      <tilted>0</tilted></_>
    <_>
      <rects>
        <_>
          3 31 2 1 -1.</_>
        <_>
          4 31 1 1 2.</_></rects>
      <tilted>0</tilted></_>
    <_>
      <rects>
        <_>
          4 0 22 4 -1.</_>
        <_>
          4 2 22 2 2.</_></rects>
      <tilted>0</tilted></_>
    <_>
      <rects>
        <_>
          4 0 39 8 -1.</_>
        <_>
          4 4 39 4 2.</_></rects>
      <tilted>0</tilted></_>
    <_>
      <rects>
        <_>
          4 0 40 28 -1.</_>
        <_>
          4 14 40 14 2.</_></rects>
      <tilted>0</tilted></_>
    <_>
      <rects>
        <_>
          4 0 43 28 -1.</_>
        <_>
          4 14 43 14 2.</_></rects>
      <tilted>0</tilted></_>
    <_>
      <rects>
        <_>
          4 4 18 12 -1.</_>
        <_>
          4 4 9 6 2.</_>
        <_>
          13 10 9 6 2.</_></rects>
      <tilted>0</tilted></_>
    <_>
      <rects>
        <_>
          4 5 36 19 -1.</_>
        <_>
          16 5 12 19 3.</_></rects>
      <tilted>0</tilted></_>
    <_>
      <rects>
        <_>
          4 8 4 1 -1.</_>
        <_>
          6 8 2 1 2.</_></rects>
      <tilted>0</tilted></_>
    <_>
      <rects>
        <_>
          4 16 4 2 -1.</_>
        <_>
          4 16 2 1 2.</_>
        <_>
          6 17 2 1 2.</_></rects>
      <tilted>0</tilted></_>
    <_>
      <rects>
        <_>
          4 26 26 1 -1.</_>
        <_>
          17 26 13 1 2.</_></rects>
      <tilted>0</tilted></_>
    <_>
      <rects>
        <_>
          4 28 45 4 -1.</_>
        <_>
          4 30 45 2 2.</_></rects>
      <tilted>0</tilted></_>
    <_>
      <rects>
        <_>
          4 29 2 3 -1.</_>
        <_>
          5 29 1 3 2.</_></rects>
      <tilted>0</tilted></_>
    <_>
      <rects>
        <_>
          5 0 8 2 -1.</_>
        <_>
          5 1 8 1 2.</_></rects>
      <tilted>0</tilted></_>
    <_>
      <rects>
        <_>
          5 2 20 24 -1.</_>
        <_>
          5 2 10 12 2.</_>
        <_>
          15 14 10 12 2.</_></rects>
      <tilted>0</tilted></_>
    <_>
      <rects>
        <_>
          5 4 15 23 -1.</_>
